{"actor":{"mlp":{"layers":[{"weight":{"array":{"data":[-0.17802328,-0.19658709,0.35861033,0.35230693,-1.52245557,-0.71652102,-0.02381203,5.55597353,-0.20365703,-0.73693943,0.47799608,1.65946162,-0.63858140,-2.05243158,-0.51116121,7.07748032,-1.15243053,-0.16698156,0.56401616,-8.51920223,-1.01471543,-0.01847650,-0.41953167,-2.67506456,0.14617096,0.23306423,-0.07339460,0.91786635,1.62132144,1.12066817,-0.09544353,3.95299530,0.75059456,-0.48527282,-0.75646412,5.33261490,0.03564963,-0.05003512,-0.39281553,-0.09854747,1.94501591,1.06659400,0.06362657,-5.30134821,-0.34960428,0.09956332,0.50560391,1.67863989,0.08307238,-0.02542973,-1.19404101,-5.42754316,0.10395702,-0.05984478,0.23642807,-0.10428474,-0.11973260,0.51767725,1.07746983,8.26167393,-0.38654247,-1.91282916,-0.76255840,2.14658427,-0.76148510,0.41967145,-0.72142237,-0.14819373,-0.14561191,-0.34414861,0.30250391,0.68254530,-0.50834656,-1.06774998,0.15891685,4.54087019,0.94975847,0.48707750,0.15722404,1.43034494,-0.38497439,-0.18232715,0.01018129,-0.03204618,0.27779803,0.07512019,-0.30448145,-7.87540483,0.50414205,3.04936647,-0.35924882,-3.77566504,-0.29956502,-0.12350409,-1.99019325,-1.19274998,0.98247987,0.29493013,0.10105808,1.17571986,-0.07465819,-0.12980039,-1.59848273,-0.90557832,1.16895461,0.62122804,1.23370218,0.09461197,-1.61704671,-0.09089079,-0.28881404,1.00799465,1.63748300,0.13273925,0.20332751,6.88710785,0.80558980,-2.51375031,0.13169695,7.77706909,0.40800661,0.48540148,0.98880184,-2.10040450,-0.12530588,-0.14725961,0.51043117,2.39586067,1.48429942,0.89937198,0.04398657,-0.32937780,0.54992139,1.98881304,-0.39018729,-0.31075475,-2.13240170,-0.80858135,-0.86301082,-2.13722539,0.24485743,-2.65220356,-0.32664368,-3.47527814,-0.00427390,-0.16800188,-0.21489204,0.54068774,0.33844745,-0.14429145,0.99941081,3.34557652,0.76332557,0.89138079,0.18343715,5.72364616,-0.35791472,0.52806324,-0.74885428,-3.59893441,0.17578356,-0.18236309,-0.02956351,0.72912949,-0.55503356,-0.66544372,-0.13687310,-2.71181870,0.06742436,0.01824679,-0.81485242,-0.10939137,-0.00662164,0.31099120,-0.01257577,2.04445267,0.77355856,0.10733405,0.04699777,0.51349264,-0.09469425,0.11956646,-0.81416714,-2.92953420,-1.25251544,-0.72502542,0.26204440,0.66147375,0.61788666,-0.11041383,-0.41696769,1.91738904,0.49731687,-0.15313207,-0.00876111,0.02028866,-0.28909150,-0.38715923,1.38626087,5.03761816,0.25652269,-0.97425652,0.12429008,5.08294678,0.36921778,-1.60986233,-0.24410509,3.28175116,1.12592244,1.36107028,0.07373903,-2.53584123,1.09270334,-1.29767478,0.68799484,-3.84217882,-1.21718049,-0.54754072,-0.20702970,-0.29982582,0.77286738,-0.21966052,-0.00981338,0.44138923,0.87439716,-1.51261699,1.01656663,-2.13342571,-0.22909467,-0.09890240,-0.36865294,-2.68401527,-2.02007484,-2.07059669,-0.18678233,0.59343010,0.29614931,1.25338972,-0.00410060,2.64607763,-1.33520758,-2.23542762,0.80599165,2.20121431,0.07257147,-0.24271740,0.03160016,-0.12208489,0.00660423,-0.04954598,-0.31233519,-8.10021210,-0.04991239,0.18749601,0.11307374,1.46287835,0.10468276,-0.76331115,0.17469904,-0.25701135,-0.53424728,-0.40295872,-0.02276888,-1.13864481,0.55158514,1.02628517,0.00769360,0.49824169,-0.47400495,-0.31677067,0.10868950,0.32835671,-0.38798943,1.27156639,-0.18822426,0.79964328,-0.03602743,-0.05573747,0.52625483,1.03042126,1.48515689,-0.20716883,-1.22628164,6.99050093,0.64125174,1.28472853,1.40009022,2.31271410,-0.13208655,-0.35768881,2.15182400,3.61724901,-0.24554692,-0.92901003,-0.40487245,-0.76555043,0.17114590,2.03014493,0.99842221,-3.85776472,0.71568871,-0.22851552,-0.04846596,0.03723990,-0.19875532,-0.70218039,-0.23028076,0.92805743,-0.30165255,0.14613640,-0.02910957,-0.88594294,-0.12152140,-0.62430900,0.31396759,7.03581953,-1.05564380,-1.31342161,0.54161966,-6.24305582,-0.04905409,-0.32934222,0.13772030,2.70217156,0.03980084,1.69485855,0.12643096,-6.83920908,0.25069830,0.83389896,0.09470997,-0.80912971,-1.76094151,-1.24270332,-0.99121547,-0.43819943,0.10369797,-0.12636408,0.44330171,1.76222444,-1.87516344,-2.61071944,0.32344526,-0.58337736,-0.26816779,0.47267434,0.67482412,-3.26845098,-0.29334462,-0.59558469,0.71405900,-0.80424023,-0.90890056,0.98494941,-0.31487846,2.68834233,-0.10878359,0.39825043,0.55655158,-3.06542587,-0.35128361,2.65491080,-0.57275027,-0.86858952,-0.42140543,-0.47409829,0.00240974,-10.53988647,0.23321368,-0.17844118,0.09686343,-2.94800353,0.05694691,0.31193528,-0.02303073,0.27886358,0.05698087,-0.86358827,0.03301594,-2.73883533,0.38109866,-0.68601596,-0.28130782,-0.48216176,-0.93539113,-1.17875159,1.14269304,3.41714549,0.22015834,0.45624569,-0.17700759,-3.00790787,-0.73688054,0.85153371,0.30040342,-3.58552170,0.32250792,-0.72817355,-0.54142141,-4.12554312,0.00790053,-0.02144780,0.46172100,0.46636337,-0.97651881,-0.99221200,-0.08321163,1.22937047,-0.28197700,-1.10743582,0.26716727,1.45581794,1.40837586,-1.95964515,-0.36258015,-3.34133458,0.05605460,0.01399528,0.46673641,1.88718164,0.07334360,-0.97325897,0.80341452,3.73791146,-0.05419305,-0.02002179,0.24592067,2.54864955,0.76474512,0.90763587,0.77971345,5.62478876,0.08398677,-1.99653697,-0.23129465,1.52374160,-1.04980206,0.08808350,-0.08906727,-0.43586788,0.12208808,0.26547459,-0.06555533,-1.26629353,0.25143141,0.19857427,-1.94049764,-3.93908572,-0.22329338,0.05259242,1.16661406,6.23081636,-0.13289540,-0.33761668,0.17128570,-1.81191099,1.36087298,-0.25265566,0.01274055,4.47183943,0.06229571,0.27253687,0.04921620,0.69998205,-0.08267187,0.13890818,-0.35573769,-0.53371501,0.21980700,0.08559461,0.04816612,-0.10013869,0.89145237,-1.16571760,0.31879988,-5.40023422,-0.33280438,0.32207251,0.87159234,6.20665026,0.71733290,-0.25585383,-0.07860458,-1.45872891,0.08668012,0.99728882,0.46822533,-0.37718999,-0.62618607,-0.20587038,-0.22494590,-2.93382955,-0.03570433,-0.00775830,0.11780385,0.22142829,1.70529652,0.25364155,1.07065511,-1.81818604,-0.09034271,-0.65813142,-0.26520437,-1.34543240,-0.67955446,-0.32871646,0.36389017,5.51513863,0.16932492,-0.75382990,0.38066301,-1.77802050],"gradient":[0.00000000,0.00000000,0.00000000,0.00000000,0.00000000,0.00000000,0.00000000,0.00000000,0.00000000,0.00000000,0.00000000,0.00000000,-0.08674301,0.08225353,-0.12832977,0.01407499,0.03759423,-0.00911248,-0.06182510,-0.00113469,0.00000000,0.00000000,0.00000000,0.00000000,0.00000000,0.00000000,0.00000000,0.00000000,0.00000000,0.00000000,0.00000000,0.00000000,0.00000000,0.00000000,0.00000000,0.00000000,0.00000000,0.00000000,0.00000000,0.00000000,0.00000000,0.00000000,0.00000000,0.00000000,0.00000000,0.00000000,0.00000000,0.00000000,0.00000000,0.00000000,0.00000000,0.00000000,0.00000000,0.00000000,0.00000000,0.00000000,0.00407729,0.09047846,0.36915979,0.00632333,0.01021227,-0.07917165,-0.18904607,-0.00405396,0.00000000,0.00000000,0.00000000,0.00000000,0.00000000,0.00000000,0.00000000,0.00000000,0.00000000,0.00000000,0.00000000,0.00000000,0.00000000,0.00000000,0.00000000,0.00000000,0.00000000,0.00000000,0.00000000,0.00000000,0.00000000,0.00000000,0.00000000,0.00000000,0.00000000,0.00000000,0.00000000,0.00000000,0.20867464,-0.07109336,-0.50570959,-0.00539894,0.00000000,0.00000000,0.00000000,0.00000000,0.12430451,-0.04737050,-0.27886471,-0.00428640,0.01708055,0.05248665,0.22450700,0.00347303,0.00000000,0.00000000,0.00000000,0.00000000,0.00000000,0.00000000,0.00000000,0.00000000,-0.00138969,-0.02017568,-0.08298326,-0.00124549,0.00000000,0.00000000,0.00000000,0.00000000,0.00000000,0.00000000,0.00000000,0.00000000,0.00000000,0.00000000,0.00000000,0.00000000,0.00000000,0.00000000,0.00000000,0.00000000,0.01206817,-0.02325639,-0.02441487,-0.00256654,0.00356164,-0.02761192,-0.06593175,-0.00141386,0.00000000,0.00000000,0.00000000,0.00000000,0.00000000,0.00000000,0.00000000,0.00000000,0.00000000,0.00000000,0.00000000,0.00000000,0.00000000,0.00000000,0.00000000,0.00000000,0.00000000,0.00000000,0.00000000,0.00000000,0.00000000,0.00000000,0.00000000,0.00000000,0.00000000,0.00000000,0.00000000,0.00000000,0.00000000,0.00000000,0.00000000,0.00000000,0.00000000,0.00000000,0.00000000,0.00000000,0.00000000,0.00000000,0.00000000,0.00000000,0.00000000,0.00000000,0.00000000,0.00000000,0.00000000,0.00000000,0.00000000,0.00000000,0.00000000,0.00000000,0.00000000,0.00000000,0.00000000,0.00000000,0.00000000,0.00000000,0.00000000,0.00000000,0.00000000,0.00000000,0.00000000,0.00000000,0.00000000,0.00000000,0.00000000,0.00000000,0.00000000,0.00000000,0.00098428,-0.00110028,0.00471731,-0.00001152,0.00000000,0.00000000,0.00000000,0.00000000,0.00000000,0.00000000,0.00000000,0.00000000,0.00000000,0.00000000,0.00000000,0.00000000,0.00000000,0.00000000,0.00000000,0.00000000,0.08913486,-0.01399271,-0.08361654,-0.00326928,0.00000000,0.00000000,0.00000000,0.00000000,0.02478265,-0.00600707,-0.04075597,-0.00074800,0.00000000,0.00000000,0.00000000,0.00000000,0.00000000,0.00000000,0.00000000,0.00000000,0.00000000,0.00000000,0.00000000,0.00000000,0.00000000,0.00000000,0.00000000,0.00000000,0.00000000,0.00000000,0.00000000,0.00000000,0.00000000,0.00000000,0.00000000,0.00000000,0.00000000,0.00000000,0.00000000,0.00000000,0.00000000,0.00000000,0.00000000,0.00000000,0.00000000,0.00000000,0.00000000,0.00000000,0.05019952,0.02050582,-0.28927359,0.00671781,-0.00281554,0.18474397,0.52477121,0.01259897,0.35220677,0.50425971,1.92246020,0.03091612,0.00000000,0.00000000,0.00000000,0.00000000,-0.03761936,-0.07035325,-0.27293631,-0.00446458,0.00000000,0.00000000,0.00000000,0.00000000,0.00000000,0.00000000,0.00000000,0.00000000,0.00000000,0.00000000,0.00000000,0.00000000,0.00000000,0.00000000,0.00000000,0.00000000,0.00000000,0.00000000,0.00000000,0.00000000,0.00000000,0.00000000,0.00000000,0.00000000,0.00000000,0.00000000,0.00000000,0.00000000,0.00000000,0.00000000,0.00000000,0.00000000,0.00000000,0.00000000,0.00000000,0.00000000,0.00000000,0.00000000,0.00000000,0.00000000,-0.02333020,-0.01283338,-0.04340578,-0.00049207,0.00000000,0.00000000,0.00000000,0.00000000,0.00000000,0.00000000,0.00000000,0.00000000,0.00000000,0.00000000,0.00000000,0.00000000,0.00000000,0.00000000,0.00000000,0.00000000,0.00000000,0.00000000,0.00000000,0.00000000,-0.06927615,-0.01041809,0.22333424,-0.00551568,0.00000000,0.00000000,0.00000000,0.00000000,0.00000000,0.00000000,0.00000000,0.00000000,0.00000000,0.00000000,0.00000000,0.00000000,0.00000000,0.00000000,0.00000000,0.00000000,0.00000000,0.00000000,0.00000000,0.00000000,0.00000000,0.00000000,0.00000000,0.00000000,0.00000000,0.00000000,0.00000000,0.00000000,0.00000000,0.00000000,0.00000000,0.00000000,0.00000000,0.00000000,0.00000000,0.00000000,0.00000000,0.00000000,0.00000000,0.00000000,0.00000000,0.00000000,0.00000000,0.00000000,-0.04051843,0.13272846,0.34751093,0.00724438,0.00000000,0.00000000,0.00000000,0.00000000,0.00370222,-0.00413855,0.01774349,-0.00004334,0.00000000,0.00000000,0.00000000,0.00000000,0.00000000,0.00000000,0.00000000,0.00000000,0.00330175,-0.02559711,-0.06112077,-0.00131069,0.00000000,0.00000000,0.00000000,0.00000000,0.00000000,0.00000000,0.00000000,0.00000000,-1.31004846,-0.05780113,0.97399712,0.02340730,-0.04658799,0.03982583,0.15724832,0.00334607,0.00000000,0.00000000,0.00000000,0.00000000,0.00000000,0.00000000,0.00000000,0.00000000,0.00000000,0.00000000,0.00000000,0.00000000,0.00000000,0.00000000,0.00000000,0.00000000,0.00000000,0.00000000,0.00000000,0.00000000,0.00000000,0.00000000,0.00000000,0.00000000,-0.04000849,0.02808235,0.12206669,0.00242724,0.00000000,0.00000000,0.00000000,0.00000000,0.00000000,0.00000000,0.00000000,0.00000000,0.00000000,0.00000000,0.00000000,0.00000000,0.00000000,0.00000000,0.00000000,0.00000000,-0.00921615,-0.00450575,-0.03587708,0.00004413,0.00000000,0.00000000,0.00000000,0.00000000,0.00000000,0.00000000,0.00000000,0.00000000,0.00000000,0.00000000,0.00000000,0.00000000]},"adam_m":[-0.00000000,-0.00000000,0.00000000,-0.00000000,-0.00000000,-0.00000000,0.00000000,-0.00000000,-0.00000000,-0.00000000,0.00000000,0.00000000,0.04856112,-0.03533456,-0.08523427,0.00071826,-0.08011404,-0.04967802,0.14703238,0.00040671,-0.00000000,-0.00000000,-0.00000000,-0.00000000,-0.00000000,0.00000000,-0.00000000,0.00000000,-0.06405681,-0.06170368,0.01449148,-0.00516418,0.00241855,-0.00068474,-0.00004587,0.00059506,0.00000000,-0.00000000,-0.00000000,-0.00000000,-0.40204200,-0.02789111,0.21019530,-0.00839701,-0.00000000,0.00000000,0.00000000,0.00000000,0.00955759,-0.00387917,-0.00010711,-0.00433808,0.00000000,-0.00000000,0.00000000,-0.00000000,0.05545160,0.15517318,1.91007769,0.00756098,-0.06837481,0.05488958,0.17398721,0.00232068,-0.00000000,0.00000000,-0.00000000,0.00000000,-0.00000000,-0.00000000,0.00000000,0.00000000,0.00000000,0.00000000,0.00000000,-0.00000000,0.00000000,0.00000000,0.00000000,0.00000000,-0.00000000,-0.00000000,-0.00000000,-0.00000000,-0.00197903,0.00068818,-0.00017649,0.00092064,-0.12654762,-0.04472731,0.18073067,0.00010989,-1.08221388,0.14663635,0.81371289,0.02287196,0.00000000,0.00000000,0.00000000,0.00000000,-0.52974343,0.07718210,0.38018364,0.01180465,0.16447532,0.01482312,1.42002296,0.01197023,-0.00000000,0.00000000,-0.00000000,0.00000000,0.16023985,0.05981506,0.24139203,0.02873328,0.26674598,-0.02105005,-0.82931376,-0.01047286,0.02366061,0.00829287,0.02931394,-0.00015039,0.00000000,-0.00000000,0.00000000,0.00000000,0.58894128,0.06983979,-0.64000493,-0.00428448,-0.00277590,-0.00082915,-0.00700987,-0.00211281,0.05804621,0.02795078,0.15123467,0.00243326,-0.02703332,0.01521208,0.02184137,0.00230797,0.00000000,-0.00000000,-0.00000000,0.00000000,-0.00000000,-0.00000000,-0.00000000,-0.00000000,0.01256356,0.02318206,-0.02733184,-0.00019710,0.00000000,0.00000000,-0.00000000,-0.00000000,0.00000000,-0.00000000,0.00000000,0.00000000,-0.00000000,-0.00000000,0.00000000,-0.00000000,0.00000000,0.00000000,-0.00000000,-0.00000000,-0.00000000,0.00000000,-0.00000000,0.00000000,0.00000000,0.00000000,0.00000000,-0.00000000,0.00000000,-0.00000000,-0.00000000,-0.00000000,-0.00000000,-0.00000000,0.00000000,0.00000000,0.00000000,-0.00000000,-0.00000000,0.00000000,0.00000000,-0.00000000,-0.00000000,-0.00000000,-0.00000000,-0.00000000,-0.00000000,-0.00000000,-0.00391242,0.03786531,-0.01513718,0.00133187,-0.00148933,0.00121000,-0.00477571,-0.00062133,0.00008721,0.00008277,-0.00001538,0.00000721,-0.07918777,-0.03597928,-0.21870440,-0.00703274,0.00000000,0.00000000,0.00000000,-0.00000000,0.00000000,-0.00000000,-0.00000000,0.00000000,-0.39830822,0.11678632,-0.80125296,0.01110333,0.00000000,-0.00000000,-0.00000000,-0.00000000,-0.00761059,-0.06741651,-0.23778690,-0.00480953,-0.00000000,0.00000000,0.00000000,0.00000000,0.12873966,0.00123009,-0.20025261,0.00202220,0.00000000,-0.00000000,-0.00000000,-0.00000000,-0.00172872,0.00087725,0.00007621,0.00076856,-0.00000000,0.00000000,0.00000000,0.00000000,0.00000000,-0.00000000,-0.00000000,-0.00000000,-0.00000000,-0.00000000,-0.00000000,-0.00000000,0.00000000,0.00000000,-0.00000000,0.00000000,-0.00000000,-0.00000000,0.00000000,0.00000000,-0.00000000,0.00000000,-0.00000000,0.00000000,-0.00000000,0.00000000,0.00000000,0.00000000,-1.11496496,0.10088594,0.95234001,0.02100720,0.25163430,0.10184244,0.50865495,0.01306315,1.27090049,0.56927502,13.11171341,0.08366655,0.00000000,-0.00000000,-0.00000000,-0.00000000,0.00990170,-0.13438192,-1.73004293,-0.01291833,0.00000000,-0.00000000,-0.00000000,-0.00000000,-0.00000000,-0.00000000,-0.00000000,0.00000000,0.00000000,-0.00000000,0.00000000,0.00000000,0.00926157,-0.01096123,0.00958387,0.00229075,0.03871878,0.02633748,-0.08119452,-0.00027881,-0.00000000,-0.00000000,0.00000000,0.00000000,-0.01580386,-0.03023696,-0.03585469,0.00191699,0.00000000,0.00000000,0.00000000,-0.00000000,-0.16938232,0.02487453,-0.60866082,-0.00100588,0.00000000,-0.00000000,0.00000000,0.00000000,0.10540020,-0.00204021,-0.58898914,0.00128166,0.00000000,0.00000000,0.00000000,-0.00000000,-0.00000000,-0.00000000,0.00000000,-0.00000000,-0.00000000,0.00000000,-0.00000000,0.00000000,0.00000000,0.00000000,-0.00000000,-0.00000000,0.01375169,0.00600643,-0.03485132,-0.00318532,1.09987438,-0.11667947,-2.22608972,-0.00513381,0.00000000,-0.00000000,0.00000000,-0.00000000,0.00000000,0.00000000,0.00000000,0.00000000,0.00000000,-0.00000000,-0.00000000,-0.00000000,0.00000000,-0.00000000,-0.00000000,-0.00000000,0.13286512,0.11692571,-0.25943303,0.00216542,0.00000000,0.00000000,0.00000000,-0.00000000,0.00000000,0.00000000,0.00000000,-0.00000000,-0.00067900,0.00148181,0.00193601,-0.00007637,-0.00000000,0.00000000,0.00000000,0.00000000,0.00000000,0.00000000,0.00000000,-0.00000000,-0.00000000,-0.00000000,0.00000000,0.00000000,-0.83953428,-0.10194210,0.99651897,-0.00516147,0.00000000,-0.00000000,0.00000000,0.00000000,-0.22293085,0.08497151,0.54880238,-0.00580865,-0.00000000,0.00000000,0.00000000,0.00000000,-0.01814259,-0.04093206,-0.06597580,-0.00878133,-0.03051140,0.02274230,0.05830842,-0.00020107,-0.00000000,-0.00000000,-0.00000000,0.00000000,0.00000000,0.00000000,-0.00000000,-0.00000000,10.37467575,-1.11879730,-9.22719288,-0.18010633,-0.14639446,0.08883518,0.29482758,-0.00340938,0.00000000,-0.00000000,0.00000000,-0.00000000,0.95082414,-0.04686242,-2.15710759,-0.01622899,-0.00000000,0.00000000,0.00000000,0.00000000,0.00000000,0.00000000,-0.00000000,-0.00000000,0.00000000,0.00000000,0.00000000,-0.00000000,0.41848570,-0.05902107,0.76018620,-0.00412022,-0.12375477,0.07286445,0.11431140,-0.00393907,0.00000000,-0.00000000,0.00000000,-0.00000000,0.00000000,0.00000000,0.00000000,-0.00000000,-0.00000000,-0.00000000,-0.00000000,-0.00000000,-0.00000000,-0.00000000,0.00000000,0.00000000,-0.01197979,0.12507345,-0.05106372,0.00425769,0.00000000,-0.00000000,-0.00000000,-0.00000000,0.00000000,0.00000000,-0.00000000,0.00000000,0.00000000,-0.00000000,0.00000000,-0.00000000],"adam_v":[0.00000000,0.00000000,0.00000000,0.00000000,0.01004564,0.00723364,0.01654257,0.02030207,0.00000000,0.00000000,0.00000000,0.00000000,0.33470914,0.82043296,5.71217060,0.00232123,0.41484958,0.18042134,2.08145165,0.00125063,0.00000000,0.00000000,0.00000000,0.00000000,0.00000000,0.00000000,0.00000000,0.00000000,0.08575485,0.07064903,0.00741975,0.01241823,1.25228488,0.09686560,1.15259194,0.22251317,0.00000000,0.00000000,0.00000000,0.00000000,59.20404053,1.97657335,60.89831924,0.09078098,0.00000000,0.00000000,0.00000000,0.00000000,0.57262069,0.08392448,0.11893091,0.12826584,0.00000000,0.00000000,0.00000000,0.00000000,5.46352959,0.90495759,43.28729630,0.00836044,0.16776942,0.21757898,1.79591417,0.00035403,0.00000000,0.00000000,0.00000000,0.00000000,0.00000000,0.00000000,0.00000000,0.00000000,0.00000049,0.00000026,0.00000010,0.00000038,0.00000000,0.00000000,0.00000000,0.00000000,0.00000000,0.00000000,0.00000000,0.00000000,0.02684958,0.00497161,0.00635161,0.00543690,2.50303268,0.18122543,3.60263777,0.00216181,10.00439262,0.62265968,25.99939919,0.00461807,0.00000000,0.00000000,0.00000000,0.00000000,2.94804144,0.17127655,7.32090759,0.00116166,1.63190413,0.25039044,12.39741611,0.00303572,0.00000870,0.00000088,0.00001666,0.00000006,0.68779343,0.56907690,0.82704204,0.07642122,0.37357974,0.12078080,1.34454310,0.00085134,0.01013343,0.00136851,0.01483862,0.00008566,0.00000000,0.00000000,0.00000000,0.00000000,14.56798840,0.58632594,15.59537888,0.00338876,0.10646989,0.04167572,0.15523583,0.00023878,0.13117783,0.07032820,1.51435983,0.00026370,0.07562628,0.12771824,0.53305149,0.00102556,0.00000000,0.00000000,0.00000000,0.00000000,0.00722901,0.00549460,0.00951141,0.02311430,0.11535126,0.08133759,0.19200970,0.00550642,0.00000000,0.00000000,0.00000000,0.00000000,0.00000000,0.00000000,0.00000000,0.00000000,0.00000000,0.00000000,0.00000000,0.00000000,0.00000000,0.00000000,0.00000000,0.00000000,0.00000000,0.00000000,0.00000000,0.00000000,0.00000000,0.00000000,0.00000000,0.00000000,0.00000000,0.00000000,0.00000000,0.00000000,0.00000000,0.00000000,0.00000000,0.00000000,0.00000000,0.00000000,0.00000000,0.00000000,0.00000000,0.00000000,0.00000000,0.00000000,0.03240085,0.03125756,0.04844411,0.06191910,0.09929337,1.72024512,3.49351764,0.00583818,0.00797787,0.01051734,0.01681207,0.00270279,0.00067874,0.00054529,0.00092972,0.00002693,0.83998704,0.32341197,4.48194981,0.00286798,0.00000000,0.00000000,0.00000000,0.00000000,0.00000000,0.00000000,0.00000000,0.00000000,0.82639593,0.23751885,3.04080081,0.00333417,0.00000000,0.00000000,0.00000000,0.00000000,1.25267327,0.28830996,7.89011717,0.00125148,0.00000000,0.00000000,0.00000000,0.00000000,1.11317408,0.33544680,7.12577820,0.00104662,0.00000000,0.00000000,0.00000000,0.00000000,0.04580231,0.01249588,0.01482031,0.00804196,0.00000000,0.00000000,0.00000000,0.00000000,0.00000000,0.00000000,0.00000000,0.00000000,0.00000000,0.00000000,0.00000000,0.00000000,0.00000000,0.00000000,0.00000000,0.00000000,0.00000000,0.00000000,0.00000000,0.00000000,0.00000000,0.00000000,0.00000000,0.00000000,0.00000000,0.00000000,0.00000000,0.00000000,9.28258038,0.83983076,32.41293716,0.00595759,6.53013086,0.68743277,23.67646980,0.00734880,194.85052490,34.65486526,1541.10351562,0.25452891,0.00000000,0.00000000,0.00000000,0.00000000,6.79222536,0.92538339,35.88939285,0.00785636,0.00000000,0.00000000,0.00000000,0.00000000,0.00000000,0.00000000,0.00000000,0.00000000,0.00000000,0.00000000,0.00000000,0.00000000,0.01466678,0.01682625,0.01454546,0.00482320,0.16131726,0.10003110,0.93998009,0.00150621,0.00000000,0.00000000,0.00000000,0.00000000,0.06128136,0.03835470,0.06766035,0.00539806,0.00000000,0.00000000,0.00000000,0.00000000,0.47201279,0.18365371,6.45141411,0.00096490,0.00000000,0.00000000,0.00000000,0.00000000,0.71550149,0.19212925,7.81237841,0.00132508,0.00000000,0.00000000,0.00000000,0.00000000,0.00000000,0.00000000,0.00000000,0.00000000,0.00000000,0.00000000,0.00000000,0.00000000,0.00000000,0.00000000,0.00000000,0.00000000,0.05748208,0.04869742,0.08708329,0.00025428,7.11499500,1.30993474,51.08003998,0.00936959,0.00000000,0.00000000,0.00000000,0.00000000,0.00000000,0.00000000,0.00000000,0.00000000,0.00000000,0.00000000,0.00000000,0.00000000,0.00000000,0.00000000,0.00000000,0.00000000,1.09632242,1.01260662,4.29073811,0.00099869,0.00000000,0.00000000,0.00000000,0.00000000,0.00000000,0.00000000,0.00000000,0.00000000,0.05645948,0.01959005,0.03122982,0.00916723,0.00000000,0.00000000,0.00000000,0.00000000,0.00000000,0.00000000,0.00000000,0.00000000,0.00000000,0.00000000,0.00000000,0.00000000,9.48805046,0.68423593,16.32935143,0.00912832,0.00000000,0.00000000,0.00000000,0.00000000,4.13157082,1.11718762,28.61778831,0.00563870,0.00000000,0.00000000,0.00000000,0.00000000,5.47468233,0.67318815,15.20692825,0.01920089,0.05609147,0.07036038,0.29804784,0.00035721,0.00000000,0.00000000,0.00000000,0.00000000,0.00000000,0.00000000,0.00000000,0.00000000,733.87432861,59.17757416,2329.45776367,0.36453056,1.14631796,0.22603394,8.36109638,0.00161758,0.00000000,0.00000000,0.00000000,0.00000000,10.08709621,0.68278110,26.35891342,0.00554537,0.00000000,0.00000000,0.00000000,0.00000000,0.00000000,0.00000000,0.00000000,0.00000000,0.00000000,0.00000000,0.00000000,0.00000000,5.01779652,1.77801764,20.52778625,0.02152339,0.61920506,0.11663989,4.50388002,0.00085203,0.00000000,0.00000000,0.00000000,0.00000000,0.00000000,0.00000000,0.00000000,0.00000000,0.00000000,0.00000000,0.00000000,0.00000000,0.00000000,0.00000000,0.00000000,0.00000000,2.64700222,0.26215479,12.80924129,0.00644500,0.00000000,0.00000000,0.00000000,0.00000000,0.00202047,0.00093454,0.00772685,0.00656423,0.00000000,0.00000000,0.00000000,0.00000000]},"bias":{"array":{"data":[-0.72934699,-1.39866543,-1.47164249,-0.81837153,-0.99018955,-1.61396253,-0.59998959,-2.27750063,-1.57689464,-0.46944454,-1.84267485,-1.06403124,-1.63152456,-0.44739285,-0.74874645,-1.17849410,-1.69077337,-0.84319979,-2.18010664,-1.54990065,-0.56003904,-1.56997287,-1.22550380,-0.47448325,-1.32142854,-0.60493660,-0.75955540,-1.45883703,-1.75121176,-0.65135783,-1.39344680,-1.43777788,-1.26210284,-1.52812088,-0.79692566,-1.18042922,-0.51316434,-1.62679458,-1.19233489,-1.68653536,-0.52739739,-1.29920220,-0.98077637,-1.19588268,-0.95905477,-1.59738052,-2.14457130,-1.52424800,-0.64320749,-1.69076097,-0.63064486,-1.34078896,-1.83790350,-0.93939519,-1.82534015,-1.00927174,-1.65995967,-1.12578702,-0.59317976,-1.86385524,-1.29174662,-0.42771688,-1.55479968,-0.78880697,-0.96837819,-0.95919770,-1.42152476,-0.94424933,-1.44224894,-1.01068890,-0.53438127,-1.79922676,-1.91246605,-1.43642509,0.66768491,-0.84414124,-1.10106993,-0.36692289,-1.25560272,-1.17171824,-1.48770261,-0.72781104,-1.25096536,-1.43181324,-1.15763676,-0.15560488,-1.97855246,-1.50855780,-2.16753936,-1.29263341,-1.76615858,0.33418259,-1.77289581,-0.44563138,-1.42866623,-1.32873642,-1.96054542,-1.40783119,-1.47851133,-1.28144252,-0.67667651,-1.85765016,-1.58140504,-1.30406773,-1.16085804,-0.70351666,-1.41997194,-1.46844351,-0.91698438,-1.14932787,-1.02324700,-1.84632552,-1.12023532,-1.02936900,-0.53642899,-0.58068687,-0.65736121,-0.41782814,-0.79986954,-0.79838866,-1.39230716,-1.47131455,-1.11441731,-0.23095874,-1.38590252,-1.39981925,-1.44744968,-1.40328944],"gradient":[0.00000000,0.00000000,0.00000000,0.12877858,-0.06285631,0.00000000,0.00000000,0.00000000,0.00000000,0.00000000,0.00000000,0.00000000,0.00000000,0.00000000,0.37143350,0.18917607,0.00000000,0.00000000,0.00000000,0.00000000,0.00000000,0.00000000,0.00000000,0.50975662,0.00000000,0.28125384,0.22576262,0.00000000,0.00000000,0.03830091,0.00000000,0.00000000,0.00000000,0.00000000,0.02475389,0.06597709,0.00000000,0.00000000,0.00000000,0.00000000,0.00000000,0.00000000,0.00000000,0.00000000,0.00000000,0.00000000,0.00000000,0.00000000,0.00000000,0.00000000,0.00000000,0.00000000,0.00000000,0.00471963,0.00000000,0.00000000,0.00000000,0.00000000,-0.18616712,0.00000000,-0.04143576,0.00000000,0.00000000,0.00000000,0.00000000,0.00000000,0.00000000,0.00000000,0.00000000,0.00000000,0.29040936,0.52714455,1.92915499,0.00000000,-0.27407935,0.00000000,0.00000000,0.00000000,0.00000000,0.00000000,0.00000000,0.00000000,0.00000000,0.00000000,0.00000000,0.06902731,0.00000000,0.00000000,0.00000000,0.00000000,0.00000000,-0.46206871,0.00000000,0.00000000,0.00000000,0.00000000,0.00000000,0.00000000,0.00000000,0.00000000,0.00000000,0.00000000,0.00000000,-0.34820876,0.00000000,0.01775220,0.00000000,0.00000000,0.06116280,0.00000000,0.00000000,-0.98747087,0.15888217,0.00000000,0.00000000,0.00000000,0.00000000,0.00000000,0.00000000,0.12347347,0.00000000,0.00000000,0.00000000,0.00000000,-0.03630099,0.00000000,0.00000000,0.00000000]},"adam_m":[0.00000000,-0.00000000,0.00000000,0.10634938,0.14692432,0.00000000,0.00000000,-0.08294186,0.00282224,0.00000000,-0.39949712,0.00000000,0.01403110,0.00000000,1.92675340,-0.17530772,0.00000000,0.00000000,-0.00000000,0.00000000,0.00000000,-0.00292033,-0.16925943,-0.83531481,0.00000000,-0.39069784,1.40992403,0.00000000,0.27101344,0.21079008,0.02978129,0.00000000,0.61623633,-0.00075702,-0.15726544,-0.03673536,0.00000000,-0.00000000,0.00959382,0.00000000,0.00000000,0.00000000,0.00000000,0.00000000,0.00000000,0.00000000,0.00000000,0.00000000,0.00000000,-0.00000000,-0.01655769,-0.00229786,0.00010338,-0.23232931,-0.00000000,0.00000000,-0.80185235,0.00000000,0.19736880,0.00000000,-0.20591600,0.00000000,-0.00250868,0.00000000,0.00000000,0.00000000,0.00000000,0.00000000,0.00000000,0.00000000,-0.95806909,0.52716041,13.24646187,0.00000000,-1.69731808,0.00000000,0.00000000,-0.00000000,0.01632810,-0.08267197,0.00000000,-0.07382949,0.00000000,0.61064774,0.00000000,-1.01862383,0.00000000,0.00000000,0.00000000,0.00000000,0.01846403,-0.10713160,0.00000000,0.00000000,0.00000000,0.00000000,-0.26700285,0.00000000,0.00000000,-0.00118938,0.00000000,-0.00000000,0.00000000,-0.97390556,0.00000000,0.55560458,0.00000000,-0.07066177,-0.06939001,0.00000000,0.00000000,9.46193600,0.29925692,0.00000000,1.21377122,0.00000000,0.00000000,0.00000000,0.66265458,0.11710811,0.00000000,0.00000000,0.00000000,0.00000000,-0.04370835,0.00000000,0.00000000,0.00000000],"adam_v":[0.00000000,0.11956316,0.00000000,5.75528622,2.15218639,0.00000000,0.00000000,0.18999340,2.48470521,0.00000000,63.94049454,0.00000000,1.33875883,0.00000000,43.99972534,1.82032895,0.00000000,0.00000000,0.00000225,0.00000000,0.00000000,0.05945699,3.73167372,26.54345894,0.00000000,7.47846317,12.54428101,0.00001745,1.82122469,1.41790974,0.01566138,0.00000000,16.75651550,0.17445649,1.53509891,0.58726841,0.00000000,0.12471738,0.27353501,0.00000000,0.00000000,0.00000000,0.00000000,0.00000000,0.00000000,0.00000000,0.00000000,0.00000000,0.00000000,0.36507705,3.55646229,0.03816682,0.00118095,4.52446938,0.00000000,0.00000000,3.09729481,0.00000000,8.06363201,0.00000000,7.33108377,0.00000000,0.09586883,0.00000000,0.00000000,0.00000000,0.00000000,0.00000000,0.00000000,0.00000000,32.96742630,23.86568260,1564.18969727,0.00000000,35.73206329,0.00000000,0.00000000,0.00000000,0.06241242,0.97767216,0.00000000,0.13432455,0.00000000,6.50587797,0.00000000,7.70761776,0.00000000,0.00000000,0.00000000,0.00000000,0.11914011,48.84690475,0.00000000,0.00000000,0.00000000,0.00000000,4.44712162,0.00000000,0.00000000,0.12118106,0.00000000,0.00000000,0.00000000,17.00092888,0.00000000,29.11862373,0.00000000,15.45640564,0.29870605,0.00000000,0.00000000,2373.04907227,8.51637173,0.00000000,25.09350014,0.00000000,0.00000000,0.00000000,20.77988625,4.58927202,0.00000000,0.00000000,0.00000000,0.00000000,12.94977665,0.00000000,0.03752258,0.00000000]}},{"weight":{"array":{"data":[0.08083063,3.59985566,1.07695222,0.69306058,1.68099761,1.97297287,0.33920136,4.47690344,15.12172031,0.06920940,2.91237569,1.12793815,-0.79244459,0.11132465,0.11443275,2.55696869,0.57527095,0.14839907,1.69030845,1.90785313,-0.09483252,1.78958201,0.82827276,0.95293832,0.78587478,0.80014521,1.95623124,1.16972756,1.60639369,0.71511030,3.44792938,1.68432343,3.28601432,3.31834435,0.85484731,2.28345656,0.20542109,1.77333868,-0.59625554,-3.68431783,0.24372128,2.35551071,0.21793768,1.75296462,0.91953826,-1.52747142,1.66550052,2.35207772,-0.04151026,-0.46476230,3.61747766,2.48174930,3.14224720,2.89246702,-0.82087505,0.99397153,1.11886036,-2.18330646,1.60806799,1.11826849,1.55881321,0.17091048,1.32661629,0.50659537,-0.03008598,0.43297297,0.81364036,-0.24963593,3.34141493,0.29436833,0.57493258,2.60193348,2.26097059,0.97798616,0.15693982,-0.10691992,-0.39713484,-0.25389510,0.36216003,1.47570205,0.58223420,0.68036759,0.59307688,0.26826960,0.07168461,1.07040322,2.41236305,0.43418980,-1.33720112,2.80236983,4.42063904,0.62888199,0.07324576,-0.01015008,-0.32213244,2.40339828,1.26315475,-0.46669307,-2.42640758,1.51196182,0.19746514,0.49569398,1.32076693,0.81121027,0.25551268,0.52940744,1.33844817,2.87684774,1.25276899,-0.23021315,0.46294302,1.18095255,0.58889979,0.28782389,2.35894775,0.17347075,0.39995027,0.05649195,1.19888079,-0.10825707,0.28148836,1.28067970,0.40653074,0.05075027,0.25575960,2.35069752,2.34641385,1.05644810,0.16180678,-2.56955934,0.34923109,2.50589728,0.78452075,1.74655473,0.28429577,6.23107958,-6.96159792,0.12603691,7.22666311,-1.00106823,11.49641800,0.16464412,1.51477313,1.06993878,1.54463720,0.47119257,3.85609007,1.88803744,0.34575528,-0.48381165,1.15404308,1.44537711,2.78371549,0.91198206,1.60380459,0.48348287,10.74056625,0.33645457,0.46833843,-7.07768965,1.31869626,0.33361021,0.56375402,1.59226871,0.22550538,-7.09301186,1.54162788,-2.36007500,-0.04395664,1.06126058,0.22661315,0.63619900,0.80216700,0.53527683,4.18630743,-0.40632704,0.40527895,-6.16322708,0.01948570,2.39104199,2.08976221,1.60451937,0.46515235,-0.05257043,1.02639139,5.95200777,1.44033885,0.68609011,2.20981741,0.08761628,-1.26646125,0.33128938,0.57898080,1.07418191,1.64701486,0.82462645,2.23123646,0.28036058,2.05282474,2.85749221,6.46560717,1.62399912,-0.55554354,0.33429310,1.55728650,-0.05464752,3.33785224,1.86861134,0.58060652,0.02959803,-0.81334513,2.81165814,-0.07363666,0.73622191,2.33891416,0.83403522,4.68073463,-0.56627512,6.12608290,-0.72855365,2.38917637,-0.24602261,0.09647506,-0.73921043,3.37241554,2.27230287,0.84364897,0.50851953,0.20213145,2.52851272,2.68728709,3.33302832,0.17266871,2.34253073,-0.89034206,-2.00334287,0.96863437,1.53305054,0.48601177,-10.52548218,1.67096174,0.46336871,0.77717334,-0.05762765,0.30386308,-0.01917895,3.81518984,0.74961889,1.51602352,1.55673862,1.38667679,0.13466696,2.28836155,0.84818292,2.60575247,-1.39855051,0.25733501,6.91960335,0.87177056,0.64256674,1.67419457,1.00170887,-0.17117666,-4.37909555,24.32878494,0.13138124,-4.35273266,-0.46587268,-4.16276693,-0.06418885,-0.87039208,2.92533278,-0.16771698,0.21988708,-2.42495155,-1.74985814,0.27109241,0.91639072,2.55170226,-0.78132212,-1.64803743,-0.23685932,0.69679117,2.94122267,-4.93993664,1.51326787,3.85039902,4.78174782,-0.51424593,2.18283796,2.04383254,1.21728003,0.16462655,5.65635490,2.93142486,2.81040645,0.16663028,-0.65714961,0.23455358,-1.11581802,-0.58761156,2.62739277,3.12548018,3.78288007,0.45375937,11.99650002,1.17325270,-0.48405194,0.37185857,2.21558809,3.83907032,1.44004822,3.47593021,-4.17123938,-0.15233579,1.19372416,0.33046132,0.09503718,1.91523921,0.10943296,-0.25890574,0.58972383,-0.05357218,1.03484058,-0.12304303,0.24814186,0.18716963,-0.97781932,-6.65725851,-1.52650309,1.28128433,0.08465727,-0.54694259,0.11716259,-0.95005870,2.51033401,0.10582752,3.02008057,0.91163397,1.23568428,-0.05885316,1.91025436,-2.71168780,0.41828060,3.33027720,2.00370979,1.11840010,1.28105283,0.16896202,-0.14082544,2.52569532,1.00764823,0.84004861,1.78272712,5.42112303,4.27561712,0.18601064,2.30056763,-0.54853964,1.97883928,-0.04013496,0.45821398,1.58707368,4.57484818,2.73312664,1.15267789,0.17304799,7.89442396,0.61545545,1.22437310,2.57532811,0.17831165,0.35807794,0.21653050,-1.08581543,0.01688066,1.29441178,0.22429654,-1.57238686,0.10294218,1.70119941,0.46821135,-1.21456397,2.36269331],"gradient":[0.00000000,0.00000000,0.00000000,0.02258483,-0.01063215,0.00000000,0.00000000,0.00000000,0.00000000,0.00000000,0.00000000,0.00000000,0.00000000,0.00000000,-0.02842838,0.03333218,0.00000000,0.00000000,0.00000000,0.00000000,0.00000000,0.00000000,0.00000000,0.17709541,0.00000000,0.13468020,0.07621971,0.00000000,0.00000000,0.01855278,0.00000000,0.00000000,0.00000000,0.00000000,-0.04709731,0.03611077,0.00000000,0.00000000,0.00000000,0.00000000,0.00000000,0.00000000,0.00000000,0.00000000,0.00000000,0.00000000,0.00000000,0.00000000,0.00000000,0.00000000,0.00000000,0.00000000,0.00000000,0.00431132,0.00000000,0.00000000,0.00000000,0.00000000,-0.00487466,0.00000000,-0.00214018,0.00000000,0.00000000,0.00000000,0.00000000,0.00000000,0.00000000,0.00000000,0.00000000,0.00000000,0.20175427,0.00605282,-0.02136042,0.00000000,-0.02866938,0.00000000,0.00000000,0.00000000,0.00000000,0.00000000,0.00000000,0.00000000,0.00000000,0.00000000,0.00000000,-0.06451461,0.00000000,0.00000000,0.00000000,0.00000000,0.00000000,0.10517269,0.00000000,0.00000000,0.00000000,0.00000000,0.00000000,0.00000000,0.00000000,0.00000000,0.00000000,0.00000000,0.00000000,0.01983586,0.00000000,0.00497763,0.00000000,0.00000000,0.01277757,0.00000000,0.00000000,0.04962830,-0.02624812,0.00000000,0.00000000,0.00000000,0.00000000,0.00000000,0.00000000,-0.03727937,0.00000000,0.00000000,0.00000000,0.00000000,0.00415342,0.00000000,0.00000000,0.00000000,0.00000000,0.00000000,0.00000000,-0.02937949,0.00527704,0.00000000,0.00000000,0.00000000,0.00000000,0.00000000,0.00000000,0.00000000,0.00000000,0.00000000,0.10323716,-0.03896011,0.00000000,0.00000000,0.00000000,0.00000000,0.00000000,0.00000000,0.00000000,0.18420428,0.00000000,0.11899447,0.06880008,0.00000000,0.00000000,-0.01601156,0.00000000,0.00000000,0.00000000,0.00000000,0.03790268,-0.04220784,0.00000000,0.00000000,0.00000000,0.00000000,0.00000000,0.00000000,0.00000000,0.00000000,0.00000000,0.00000000,0.00000000,0.00000000,0.00000000,0.00000000,0.00000000,0.00000000,0.00000000,0.00255085,0.00000000,0.00000000,0.00000000,0.00000000,-0.01155031,0.00000000,0.00106223,0.00000000,0.00000000,0.00000000,0.00000000,0.00000000,0.00000000,0.00000000,0.00000000,0.00000000,0.12787765,0.00763563,0.03983814,0.00000000,0.33741915,0.00000000,0.00000000,0.00000000,0.00000000,0.00000000,0.00000000,0.00000000,0.00000000,0.00000000,0.00000000,0.00121264,0.00000000,0.00000000,0.00000000,0.00000000,0.00000000,-0.00347365,0.00000000,0.00000000,0.00000000,0.00000000,0.00000000,0.00000000,0.00000000,0.00000000,0.00000000,0.00000000,0.00000000,0.00729321,0.00000000,0.00294508,0.00000000,0.00000000,-0.01493499,0.00000000,0.00000000,0.00905199,0.03610753,0.00000000,0.00000000,0.00000000,0.00000000,0.00000000,0.00000000,0.05537048,0.00000000,0.00000000,0.00000000,0.00000000,0.00163810,0.00000000,0.00000000,0.00000000,0.00000000,0.00000000,0.00000000,0.00679466,0.00535511,0.00000000,0.00000000,0.00000000,0.00000000,0.00000000,0.00000000,0.00000000,0.00000000,0.00000000,-0.07480880,0.00562793,0.00000000,0.00000000,0.00000000,0.00000000,0.00000000,0.00000000,0.00000000,-0.36129966,0.00000000,-0.25367466,-0.14501980,0.00000000,0.00000000,-0.00254122,0.00000000,0.00000000,0.00000000,0.00000000,0.00919463,0.00609708,0.00000000,0.00000000,0.00000000,0.00000000,0.00000000,0.00000000,0.00000000,0.00000000,0.00000000,0.00000000,0.00000000,0.00000000,0.00000000,0.00000000,0.00000000,0.00000000,0.00000000,-0.00686217,0.00000000,0.00000000,0.00000000,0.00000000,0.01642497,0.00000000,0.00107795,0.00000000,0.00000000,0.00000000,0.00000000,0.00000000,0.00000000,0.00000000,0.00000000,0.00000000,-0.32963192,-0.01368845,-0.01847774,0.00000000,-0.30874982,0.00000000,0.00000000,0.00000000,0.00000000,0.00000000,0.00000000,0.00000000,0.00000000,0.00000000,0.00000000,0.06330197,0.00000000,0.00000000,0.00000000,0.00000000,0.00000000,-0.10169905,0.00000000,0.00000000,0.00000000,0.00000000,0.00000000,0.00000000,0.00000000,0.00000000,0.00000000,0.00000000,0.00000000,-0.02712907,0.00000000,-0.00792272,0.00000000,0.00000000,0.00215741,0.00000000,0.00000000,-0.05868029,-0.00985941,0.00000000,0.00000000,0.00000000,0.00000000,0.00000000,0.00000000,-0.01809112,0.00000000,0.00000000,0.00000000,0.00000000,-0.00579152,0.00000000,0.00000000,0.00000000]},"adam_m":[-0.00000000,0.00000000,0.00000000,0.01028631,0.02575426,0.00000000,0.00000000,-0.00079594,0.00004131,-0.00000000,0.02563642,0.00000000,-0.00006610,0.00000000,0.24206086,0.00380952,-0.00000000,-0.00000000,0.00000000,-0.00000000,-0.00000000,-0.00175579,0.01259106,0.33439085,-0.00000000,0.24148723,0.57749581,0.00000000,-0.00230961,-0.02333962,-0.00018210,0.00000000,0.05758408,0.00135254,-0.01504065,-0.02685606,0.00000000,-0.00000000,-0.00572011,-0.00000000,0.00000000,-0.00000000,0.00000000,0.00000000,0.00000000,0.00000000,-0.00000000,-0.00000000,-0.00000000,-0.00000000,-0.00559275,-0.00150712,0.00000254,0.10790509,0.00000000,0.00000000,-0.00246538,0.00000000,0.14068578,0.00000000,0.11744760,-0.00000000,-0.00163873,-0.00000000,-0.00000000,-0.00000000,-0.00000000,0.00000000,-0.00000000,0.00000000,0.43993944,-0.01652210,0.20524791,0.00000000,0.97723597,-0.00000000,-0.00000000,0.00000000,-0.00166206,0.05912810,0.00000000,0.00539116,-0.00000000,0.01350673,0.00000000,-0.04745846,-0.00000000,-0.00000000,-0.00000000,0.00000000,0.00133069,0.06188754,-0.00000000,0.00000000,-0.00000000,0.00000000,0.01423550,-0.00000000,-0.00000000,-0.00049685,-0.00000000,0.00000000,-0.00000000,-0.12458676,0.00000000,0.20995209,0.00000000,-0.00267354,-0.00778030,-0.00000000,0.00000000,0.06745471,0.06985386,-0.00000000,0.14678033,0.00000000,0.00000000,-0.00000000,0.05543013,0.06269329,-0.00000000,0.00000000,0.00000000,0.00000000,0.04095224,0.00000000,0.00000000,-0.00000000,0.00000000,0.00000000,-0.00000000,0.00172314,-0.03931062,-0.00000000,-0.00000000,0.00014027,-0.00004115,0.00000000,-0.01736107,0.00000000,0.00012707,0.00000000,0.22243907,-0.00109003,0.00000000,0.00000000,-0.00000000,0.00000000,0.00000000,0.00112581,0.02384947,-0.68521142,0.00000000,-0.52678001,0.18058088,-0.00000000,0.00411845,0.06426794,-0.00042463,-0.00000000,-0.04577924,0.00005871,0.11807306,0.02667774,-0.00000000,0.00000000,0.00535575,-0.00000000,-0.00000000,0.00000000,0.00000000,-0.00000000,-0.00000000,-0.00000000,0.00000000,-0.00000000,0.00000000,0.00000000,0.00758925,0.00147746,-0.00000295,0.03003186,-0.00000000,-0.00000000,0.01246469,0.00000000,-0.10525141,-0.00000000,-0.11119939,-0.00000000,0.00105523,0.00000000,0.00000000,0.00000000,0.00000000,-0.00000000,0.00000000,0.00000000,-1.26280165,0.03904386,0.08582813,0.00000000,1.07905495,0.00000000,0.00000000,0.00000000,0.00157067,-0.06328438,-0.00000000,0.00083403,-0.00000000,0.00779770,0.00000000,0.22260463,0.00000000,0.00000000,0.00000000,-0.00000000,-0.00049585,0.17141116,0.00000000,-0.00000000,-0.00000000,-0.00000000,-0.01289591,0.00000000,-0.00000000,0.00049140,0.00000000,-0.00000000,0.00000000,-0.14051937,0.00000000,-0.04259926,-0.00000000,0.00768885,0.00528363,0.00000000,0.00000000,-0.22031580,0.02751555,0.00000000,-0.33057523,-0.00000000,0.00000000,0.00000000,0.01094438,0.07556332,0.00000000,0.00000000,-0.00000000,-0.00000000,0.12049918,0.00000000,0.00000000,0.00000000,-0.00000000,-0.00000000,0.00000000,-0.01200942,0.01355638,-0.00000000,-0.00000000,0.00065567,-0.00000015,-0.00000000,-0.00827534,-0.00000000,-0.00006096,-0.00000000,-0.46449983,-0.00271949,-0.00000000,-0.00000000,-0.00000000,-0.00000000,-0.00000000,0.00062998,-0.03644054,0.35082069,-0.00000000,0.28529242,-0.75807691,0.00000000,-0.00180882,-0.04092827,0.00060673,0.00000000,-0.01180481,-0.00141125,-0.10303238,0.00017831,-0.00000000,-0.00000000,0.00036436,0.00000000,0.00000000,-0.00000000,0.00000000,-0.00000000,-0.00000000,0.00000000,-0.00000000,0.00000000,-0.00000000,-0.00000000,-0.00199648,0.00002966,0.00000042,-0.13793698,-0.00000000,0.00000000,-0.00999932,-0.00000000,-0.03543428,0.00000000,-0.00624807,0.00000000,0.00058350,-0.00000000,-0.00000000,-0.00000000,-0.00000000,0.00000000,-0.00000000,-0.00000000,0.82286215,-0.02252177,-0.29107594,-0.00000000,-2.05629063,0.00000000,-0.00000000,-0.00000000,0.00009140,0.00415633,-0.00000000,-0.00622520,0.00000000,-0.02130443,0.00000000,-0.17514589,-0.00000000,-0.00000000,-0.00000000,0.00000000,-0.00083484,-0.23329866,-0.00000000,0.00000000,0.00000000,0.00000000,-0.00133959,-0.00000000,0.00000000,0.00000545,0.00000000,-0.00000000,-0.00000000,0.26510602,0.00000000,-0.16735277,0.00000000,-0.00501533,0.00249668,-0.00000000,-0.00000000,0.15286100,-0.09736941,-0.00000000,0.18379492,0.00000000,-0.00000000,0.00000000,-0.06637453,-0.13825658,-0.00000000,-0.00000000,-0.00000000,-0.00000000,-0.16145143,-0.00000000,-0.00000000,0.00000000],"adam_v":[0.00000000,0.00059573,0.00000000,0.06515873,0.15935129,0.00000000,0.00000000,0.00003299,0.00266194,0.00000000,0.03785875,0.00000000,0.00100008,0.00000000,1.25486708,0.03949294,0.00000000,0.00000000,0.00000000,0.00000000,0.00000000,0.01976372,0.11269127,26.21017265,0.00000000,12.26504517,5.14155483,0.00000009,0.00446075,0.42304996,0.00003007,0.00000000,0.11847974,0.00316612,0.64733601,0.12800136,0.00000000,0.00000041,0.00594017,0.00000000,0.00000000,0.00000000,0.00000000,0.00000000,0.00000000,0.00000000,0.00000000,0.00000000,0.00000000,0.00003668,0.00854391,0.00036786,0.00000466,0.56763017,0.00000000,0.00000000,0.04512622,0.00000000,1.27777410,0.00000000,1.25711882,0.00000000,0.01760288,0.00000000,0.00000000,0.00000000,0.00000000,0.00000000,0.00000000,0.00000000,28.00113106,0.04614391,0.65302110,0.00000000,30.37527657,0.00000000,0.00000000,0.00000000,0.00394891,0.23836818,0.00000000,0.02885175,0.00000000,0.03799045,0.00000000,8.66586685,0.00000000,0.00000000,0.00000000,0.00000000,0.00035739,3.56806850,0.00000000,0.00000000,0.00000000,0.00000000,0.00890007,0.00000000,0.00000000,0.00272869,0.00000000,0.00000000,0.00000000,0.31369370,0.00000000,0.44094813,0.00000000,0.01023924,0.03572848,0.00000000,0.00000000,0.60156822,0.11446136,0.00000000,1.73252058,0.00000000,0.00000000,0.00000000,0.13074544,0.20648775,0.00000000,0.00000000,0.00000000,0.00000000,0.99759126,0.00000000,0.00051537,0.00000000,0.00000000,0.00027541,0.00000000,0.06897420,0.12816003,0.00000000,0.00000000,0.00004271,0.00052168,0.00000000,0.01909297,0.00000000,0.00086419,0.00000000,1.34906375,0.04476704,0.00000000,0.00000000,0.00000000,0.00000000,0.00000000,0.01175460,0.07600219,24.79150009,0.00000000,11.48785591,3.71978545,0.00000012,0.00335749,0.43090349,0.00002399,0.00000000,0.07060534,0.00096125,0.72768170,0.13437681,0.00000000,0.00001493,0.00373302,0.00000000,0.00000000,0.00000000,0.00000000,0.00000000,0.00000000,0.00000000,0.00000000,0.00000000,0.00000000,0.00040664,0.00687370,0.00024734,0.00000142,0.41696602,0.00000000,0.00000000,0.04832175,0.00000000,1.26070881,0.00000000,1.22603321,0.00000000,0.01030849,0.00000000,0.00000000,0.00000000,0.00000000,0.00000000,0.00000000,0.00000000,24.38735390,0.04396283,0.61852443,0.00000000,26.54112244,0.00000000,0.00000000,0.00000000,0.00296871,0.24814479,0.00000000,0.01438701,0.00000000,0.04503837,0.00000000,7.55955362,0.00000000,0.00000000,0.00000000,0.00000000,0.00001651,2.99544358,0.00000000,0.00000000,0.00000000,0.00000000,0.01056965,0.00000000,0.00000000,0.00201565,0.00000000,0.00000000,0.00000000,0.27367258,0.00000000,0.39892432,0.00000000,0.00576764,0.03756317,0.00000000,0.00000000,0.48273596,0.13527443,0.00000000,1.31630075,0.00000000,0.00000000,0.00000000,0.11687081,0.24117696,0.00000000,0.00000000,0.00000000,0.00000000,0.66477221,0.00000000,0.00062431,0.00000000,0.00000000,0.00080450,0.00000000,0.01862288,0.10443535,0.00000000,0.00000000,0.00003417,0.00301049,0.00000000,0.02477538,0.00000000,0.00023682,0.00000000,1.48964536,0.00694062,0.00000000,0.00000000,0.00000000,0.00000000,0.00000000,0.00974192,0.08651001,10.79836750,0.00000000,5.22254705,5.40720654,0.00000007,0.00636904,0.14473702,0.00002418,0.00000000,0.06854817,0.00292400,0.21897559,0.02713506,0.00000000,0.00001360,0.00795064,0.00000000,0.00000000,0.00000000,0.00000000,0.00000000,0.00000000,0.00000000,0.00000000,0.00000000,0.00000000,0.00040514,0.00816048,0.00025273,0.00000347,0.47104931,0.00000000,0.00000000,0.01995693,0.00000000,0.42707387,0.00000000,0.40637118,0.00000000,0.00885584,0.00000000,0.00000000,0.00000000,0.00000000,0.00000000,0.00000000,0.00000000,15.33688354,0.05387492,0.62648201,0.00000000,35.04932785,0.00000000,0.00000000,0.00000000,0.00619844,0.07149201,0.00000000,0.01598855,0.00000000,0.01612781,0.00000000,5.64930582,0.00000000,0.00000000,0.00000000,0.00000000,0.00031777,2.65223503,0.00000000,0.00000000,0.00000000,0.00000000,0.00352738,0.00000000,0.00000000,0.00123245,0.00000000,0.00000000,0.00000000,0.18368429,0.00000000,0.27979401,0.00000000,0.01270840,0.00480083,0.00000000,0.00000000,0.37898767,0.12623204,0.00000000,1.10205305,0.00000000,0.00000000,0.00000000,0.09045041,0.24320619,0.00000000,0.00000000,0.00000000,0.00000000,1.08723915,0.00000000,0.00103340,0.00000000]},"bias":{"array":{"data":[0.02568734,-0.21480985,0.95830137],"gradient":[0.09562112,0.29821709,-0.39383826]},"adam_m":[0.96375966,-0.07090217,-0.89285672],"adam_v":[25.48770905,22.20988274,19.02470207]}}]}},"critic":{"mlp":{"layers":[{"weight":{"array":{"data":[-0.12382492,0.54014289,-0.70944685,-4.44049644,0.65196830,0.22605030,-0.10538102,2.19854069,-1.43016279,0.36723036,-0.34807053,-2.77392244,0.19593368,0.49020839,0.61035126,3.98667431,-0.96893752,-0.45480257,-0.73899162,5.22272062,0.49942824,0.16406587,-0.76748019,-1.99653125,0.46960866,-0.26279253,-0.05698034,0.25382835,0.13528010,0.35122368,-0.22657289,-2.47689605,-0.56672883,0.05465743,0.17357695,-0.81630343,-1.17514169,0.04207526,-0.11816540,-1.19163680,-0.02831993,-0.95731044,-0.15321177,9.16098881,-0.21247518,-0.06476927,0.05727393,2.16812539,-0.19310562,-0.05351273,-0.59559101,-2.47263288,-0.05804226,-0.20276840,0.23193467,-4.14088249,0.08401103,0.39506528,-1.79207826,-4.94048023,0.76592970,0.11099043,1.18616521,1.94170046,-0.21478732,0.08648795,0.13124740,3.06299877,0.99540085,-0.06551965,-0.55874795,4.37819290,0.36413091,0.30480388,-1.30913985,-3.97773957,0.28067034,1.01128566,1.00548077,-6.99460030,0.76077807,0.85377944,0.57313311,-6.01993847,0.26840541,0.30914423,-0.29854119,2.92082953,-0.57233024,-0.46283117,0.04786925,1.79230154,-0.84719664,0.06584129,-0.52274281,-0.22397830,-0.14888693,0.20852134,-0.19291002,-0.05332396,-1.70085227,-0.81445479,-1.07598245,-0.64697593,-0.68792260,1.00189495,0.23998161,-8.29881382,-0.24124090,0.93613106,-0.03796066,-7.56208801,1.52340758,0.48484758,0.06515546,-3.41310501,-0.74123132,-0.78831834,-0.62977827,6.26720858,-0.83950317,-0.76264459,-0.50795001,5.93075275,-1.08505762,0.30106673,0.48798579,-2.74036932,-0.15338805,1.02919173,1.18224621,-8.49951458,-0.40911886,0.12849027,-1.04260111,-2.77489710,-0.27591875,0.14654037,-0.69654834,-2.01794910,-0.41745123,-0.69701678,-0.03052276,-5.02243710,-0.31433302,-0.35003969,1.43367136,3.23508787,-0.48782834,-0.57763731,1.62384570,4.60841894,-0.09384850,0.33338547,-0.19678308,6.56509113,-1.19035769,-0.67047572,-0.73064989,4.09178066,-0.94459808,-0.22973838,-0.28475156,1.37953258,0.12793431,-0.02643047,0.61005521,1.69244039,-0.79784977,-0.00578312,-0.09574639,-1.16341758,-0.49698654,-0.51854807,-1.12269843,-4.58300686,-0.10777889,-0.31132811,1.68171823,3.53419662,0.27252176,0.17532325,-0.21450108,0.46577069,0.58099449,0.59447896,-2.00996947,-5.71619034,0.25246137,-0.17277899,0.89999068,3.50431085,0.82395309,0.09265006,-0.19124794,0.83194232,-0.51933539,0.09654087,-0.83398509,0.38957980,0.61361504,-0.46099734,-0.45614335,1.76820529,0.63485754,-0.69377667,0.97106069,6.10307074,-1.03378320,0.75037956,-0.04685423,-6.53872395,0.56899482,-0.48179796,0.11827043,0.06275246,0.06654572,0.27587232,-1.52162087,-3.16640663,0.23189320,0.72457707,-1.52776551,3.77206683,-0.14022613,-0.15573755,0.81487221,1.54935777,-0.18171786,-0.12746234,-0.00595355,-0.19851273,-0.00150604,-0.01032219,0.07852872,-0.06650213,-0.03862389,0.22040927,-0.57341462,-1.67736256,0.09016144,0.21696460,0.45095593,0.73586714,0.98745376,-0.18783878,-0.51624000,2.99151921,0.11543508,1.29405880,-0.28072837,-11.63532066,-1.51247883,-0.43555143,-0.22006097,2.80405664,0.86374080,0.72003663,0.33465546,-5.52810240,0.49575773,0.55957848,-1.77723062,-5.28122711,0.15214555,0.25941917,-1.06686437,-5.88248682,0.01170057,0.21346527,-0.36452535,-2.84073067,0.01620219,-0.20133619,1.18083668,3.58217001,1.21633828,-0.42352986,0.55777049,4.45642185,-0.05932603,0.51066971,-0.06483231,0.67806554,-0.28195599,-0.40730593,0.93131226,2.97936201,-0.13919003,0.37983072,-0.94190586,1.21532691,0.00248288,0.00610418,0.03408105,-0.04601903,-1.35053170,0.06577809,0.07172896,-0.01934341,0.22150669,-0.86779749,-1.12984991,7.00639153,1.04388094,0.37478057,-0.77243108,4.30212879,0.80048943,0.02940738,-0.06253988,-0.03872834,-0.18232659,0.01920992,-0.98181903,0.07336866,-0.45325089,0.40541610,0.30150637,-2.86233330,0.44478101,0.10503582,-0.28186262,-0.82569546,-0.91389012,-0.20358662,0.08135645,1.03061950,0.44059843,0.05204328,-0.27540034,-1.56724310,-0.40184906,-0.40096211,1.36943388,4.03681660,-0.23587835,0.21637017,0.08810826,2.83086705,-0.31097871,-0.35135797,0.15140049,-2.04337740,0.25384325,0.34862664,-1.71597588,-4.42814541,0.12414190,0.30471092,-0.69216174,-1.44623458,-1.92305446,-0.43624946,0.07116058,0.33520600,1.04083860,0.35149992,-0.11254112,-1.18225670,-1.14878118,-0.63611323,0.10692874,4.74620104,1.67397428,0.30188897,-0.33381718,-1.09429300,-0.47148269,0.06927150,-0.78051621,-3.30164361,0.86680990,0.23809038,-0.12803131,-0.38243932,-0.09835568,-0.26741886,0.93745404,4.76533937,0.38576993,-0.15649736,0.19485462,-0.48630312,1.09094608,0.93202025,0.24171796,-6.58496428,-0.05596118,-0.18633831,1.14781630,2.18482566,-0.46633974,0.10606716,-0.04226964,-1.82551920,0.70441210,0.04473127,1.02011573,0.86451250,0.12608238,0.39777404,-1.15948439,-5.44579315,-0.62203592,-0.20043208,-0.02527931,0.34803858,-1.21651328,-0.16728301,-0.01584067,0.04783619,0.30918351,1.21755993,0.24678697,-9.43759060,0.24406058,-0.20632121,0.82954711,2.76039219,0.19042854,-0.32072651,0.60556746,3.60652733,0.34237292,1.29542100,0.25284633,-10.41444874,-0.09312457,-0.18071313,-0.00681070,-5.53968477,-0.11405427,0.12423752,-0.20868264,0.69014126,0.97522855,0.26627395,1.04969227,-0.94603801,0.18448727,0.17885482,-0.20709972,-1.20375800,0.35177258,0.33910784,-0.23406261,0.41941655,0.24482937,-0.32066542,-0.29673886,3.21269107,0.37000063,-0.14740896,0.22971825,-0.63754880,-0.97683877,-0.16005598,-0.37943229,2.30580139,0.05674447,-0.53840250,-0.05094268,-0.00774268,1.65770721,0.12618801,-1.54005909,0.16757394,0.07362596,0.15528992,-0.75939721,-2.24581218,-0.34531894,-0.17010863,0.01143306,-2.70500755,-0.16297193,-0.92629284,-0.15774742,6.77305651,-0.45010069,0.44559425,-1.17764187,-4.31906033,0.17527321,-0.74418682,1.13553500,5.77801895,-0.50431049,-1.21985602,-0.05992544,7.57115889,0.02445263,0.08288117,-0.02571515,-0.02366832,-0.75520062,0.21719815,0.27930573,-0.75511605,0.52544343,0.86864173,-0.68361437,-8.09669495,0.09791219,-0.74285746,-0.67411578,7.84319258,-1.52963758,-0.24725741,0.00369713,0.38745528],"gradient":[0.00000000,0.00000000,0.00000000,0.00000000,0.00000000,0.00000000,0.00000000,0.00000000,0.00518788,0.02207116,0.12664057,-0.00011167,0.00000000,0.00000000,0.00000000,0.00000000,0.00000000,0.00000000,0.00000000,0.00000000,0.00000000,0.00000000,0.00000000,0.00000000,0.00000000,0.00000000,0.00000000,0.00000000,0.00000000,0.00000000,0.00000000,0.00000000,0.00000000,0.00000000,0.00000000,0.00000000,0.00000000,0.00000000,0.00000000,0.00000000,0.00000000,0.00000000,0.00000000,0.00000000,0.00000000,0.00000000,0.00000000,0.00000000,0.00000000,0.00000000,0.00000000,0.00000000,0.00000000,0.00000000,0.00000000,0.00000000,0.00000000,0.00000000,0.00000000,0.00000000,0.01100280,-0.01011489,-0.14397031,-0.00110724,0.00000000,0.00000000,0.00000000,0.00000000,0.00000000,0.00000000,0.00000000,0.00000000,0.00000000,0.00000000,0.00000000,0.00000000,0.01188809,-0.01092874,-0.15555418,-0.00119633,0.00000000,0.00000000,0.00000000,0.00000000,0.00000000,0.00000000,0.00000000,0.00000000,0.00000000,0.00000000,0.00000000,0.00000000,0.00000000,0.00000000,0.00000000,0.00000000,0.00000000,0.00000000,0.00000000,0.00000000,-0.00412095,-0.00752566,-0.04492530,0.00013517,-0.03291357,0.00797793,0.05412758,0.00099341,0.00000000,0.00000000,0.00000000,0.00000000,0.00000000,0.00000000,0.00000000,0.00000000,0.00000000,0.00000000,0.00000000,0.00000000,0.00000000,0.00000000,0.00000000,0.00000000,0.00000000,0.00000000,0.00000000,0.00000000,0.02548626,-0.02542183,-0.15410417,-0.00167247,0.00000000,0.00000000,0.00000000,0.00000000,0.00000000,0.00000000,0.00000000,0.00000000,0.00000000,0.00000000,0.00000000,0.00000000,0.06498966,-0.05974512,-0.85038191,-0.00654010,0.00000000,0.00000000,0.00000000,0.00000000,0.00000000,0.00000000,0.00000000,0.00000000,0.01410926,0.00213599,0.06645644,-0.00175421,0.00000000,0.00000000,0.00000000,0.00000000,0.00000000,0.00000000,0.00000000,0.00000000,0.00000000,0.00000000,0.00000000,0.00000000,-0.02888207,0.05627422,0.31388983,0.00139192,-0.09717377,0.08933203,1.27150691,0.00977888,0.00000000,0.00000000,0.00000000,0.00000000,0.00000000,0.00000000,0.00000000,0.00000000,0.00000000,0.00000000,0.00000000,0.00000000,0.00000000,0.00000000,0.00000000,0.00000000,0.00000000,0.00000000,0.00000000,0.00000000,0.00000000,0.00000000,0.00000000,0.00000000,-0.01717722,-0.00259575,-0.08598959,-0.00018503,0.02501719,-0.00606392,-0.04114169,-0.00075508,0.00000000,0.00000000,0.00000000,0.00000000,0.27619937,-0.33220094,-1.47382116,-0.02077852,-0.02760414,0.05378427,0.30000129,0.00133034,0.00000000,0.00000000,0.00000000,0.00000000,0.00000000,0.00000000,0.00000000,0.00000000,0.00000000,0.00000000,0.00000000,0.00000000,0.00000000,0.00000000,0.00000000,0.00000000,0.00000000,0.00000000,0.00000000,0.00000000,0.00000000,0.00000000,0.00000000,0.00000000,-0.04315533,0.02717357,0.18052995,0.00203171,0.00000000,0.00000000,0.00000000,0.00000000,0.00000000,0.00000000,0.00000000,0.00000000,0.00000000,0.00000000,0.00000000,0.00000000,-0.01966562,0.03831677,0.21372569,0.00094775,0.00000000,0.00000000,0.00000000,0.00000000,0.00000000,0.00000000,0.00000000,0.00000000,0.02362088,0.00356948,0.11824667,0.00025445,0.00000000,0.00000000,0.00000000,0.00000000,0.00000000,0.00000000,0.00000000,0.00000000,-0.01571578,0.03062083,0.17079879,0.00075740,0.00000000,0.00000000,0.00000000,0.00000000,0.00000000,0.00000000,0.00000000,0.00000000,-0.05024027,0.07544535,0.36232170,0.00207858,0.00000000,0.00000000,0.00000000,0.00000000,0.00000000,0.00000000,0.00000000,0.00000000,0.00000000,0.00000000,0.00000000,0.00000000,0.00000000,0.00000000,0.00000000,0.00000000,0.00000000,0.00000000,0.00000000,0.00000000,0.00000000,0.00000000,0.00000000,0.00000000,0.00000000,0.00000000,0.00000000,0.00000000,0.00000000,0.00000000,0.00000000,0.00000000,0.00000000,0.00000000,0.00000000,0.00000000,0.00000000,0.00000000,0.00000000,0.00000000,-0.10026406,0.19535586,1.08966815,0.00483207,0.00000000,0.00000000,0.00000000,0.00000000,0.00000000,0.00000000,0.00000000,0.00000000,0.00000000,0.00000000,0.00000000,0.00000000,0.00000000,0.00000000,0.00000000,0.00000000,0.00000000,0.00000000,0.00000000,0.00000000,0.00000000,0.00000000,0.00000000,0.00000000,0.00000000,0.00000000,0.00000000,0.00000000,0.00000000,0.00000000,0.00000000,0.00000000,0.00000000,0.00000000,0.00000000,0.00000000,-0.02053274,0.00537177,-0.00273996,0.00049839,0.01998962,-0.01837650,-0.26156175,-0.00201161,0.00000000,0.00000000,0.00000000,0.00000000,0.00000000,0.00000000,0.00000000,0.00000000,0.00000000,0.00000000,0.00000000,0.00000000,0.00000000,0.00000000,0.00000000,0.00000000,0.00000000,0.00000000,0.00000000,0.00000000,-0.00842478,0.00774491,0.11023721,0.00084781,0.00000000,0.00000000,0.00000000,0.00000000,0.00000000,0.00000000,0.00000000,0.00000000,0.01743278,0.01604822,0.08952434,0.00042539,0.00000000,0.00000000,0.00000000,0.00000000,0.00000000,0.00000000,0.00000000,0.00000000,0.01282776,-0.01179259,-0.16784975,-0.00129090,0.00000000,0.00000000,0.00000000,0.00000000,0.00000000,0.00000000,0.00000000,0.00000000,0.00000000,0.00000000,0.00000000,0.00000000,0.00000000,0.00000000,0.00000000,0.00000000,0.00000000,0.00000000,0.00000000,0.00000000,0.00000000,0.00000000,0.00000000,0.00000000,0.02962672,-0.02922693,-0.10358378,-0.00199170,0.00000000,0.00000000,0.00000000,0.00000000,0.00000000,0.00000000,0.00000000,0.00000000,-0.05293307,0.09256294,0.37592390,0.00208655,0.00000000,0.00000000,0.00000000,0.00000000,0.00000000,0.00000000,0.00000000,0.00000000,0.00000000,0.00000000,0.00000000,0.00000000,0.00000000,0.00000000,0.00000000,0.00000000,0.00000000,0.00000000,0.00000000,0.00000000,-0.03951420,0.07698999,0.42943957,0.00190432,-0.01822685,0.03551344,0.19808909,0.00087841,0.00000000,0.00000000,0.00000000,0.00000000]},"adam_m":[0.00000000,0.00000000,-0.00000000,-0.00000000,0.31327400,0.02503296,-0.29304636,0.00360600,0.03474373,0.11064567,-0.21985874,0.00674392,0.00000000,0.00000000,0.00000000,0.00000000,0.00000000,0.00000000,-0.00000000,0.00000000,0.00000000,0.00000000,-0.00000000,-0.00000000,0.00000000,-0.00000000,-0.00000000,0.00000000,0.00000000,0.00000000,-0.00000000,-0.00000000,-0.00000000,-0.00000000,0.00000000,0.00000000,-0.00000000,0.00000000,-0.00000000,-0.00000000,0.00683542,-0.00755418,-0.01248224,0.00099481,-0.00000000,-0.00000000,-0.00000000,0.00000000,0.00000000,0.00000000,-0.00000000,-0.00000000,0.00000000,0.00000000,0.00000000,-0.00000000,0.00703466,0.00196967,-0.00765749,-0.00190664,0.27173653,-0.01426839,0.03224897,-0.01012961,-0.00000000,-0.00000000,0.00000000,-0.00000000,-0.32507426,-0.01284135,0.30141687,-0.00321934,0.01818746,0.00509373,-0.01999720,-0.00487807,0.31001866,-0.02846683,0.02684140,-0.00815758,-0.00570304,0.00711623,-0.02355533,-0.00281226,0.00000000,0.00000000,-0.00000000,0.00000000,-0.00000000,-0.00000000,0.00000000,0.00000000,-0.00000000,0.00000000,-0.00000000,0.00000000,-0.00000000,0.00000000,-0.00000000,0.00000000,0.03835319,-0.02710151,-0.04546407,-0.00065474,-0.02368049,0.01730223,0.05060373,-0.00140417,0.04912648,0.00712591,0.37437168,-0.00062482,-0.33144787,-0.02237344,0.29355049,-0.00263888,0.00000000,0.00000000,-0.00000000,0.00000000,-0.00000000,-0.00000000,0.00000000,-0.00000000,-0.00000000,0.00000000,0.00000000,-0.00000000,0.24100630,-0.02482742,-0.13360727,-0.00099064,0.00000000,0.00000000,-0.00000000,-0.00000000,0.00000000,0.00000000,-0.00000000,-0.00000000,0.00000000,-0.00000000,-0.00000000,-0.00000000,1.61034977,-0.08331797,0.21677566,-0.05739127,0.00000000,0.00000000,0.00000000,0.00000000,0.00133009,-0.00191514,0.00129260,0.00045531,-0.03418864,0.01041127,-0.06149364,0.00052895,-0.00000000,-0.00000000,-0.00000000,0.00000000,0.00000000,-0.00000000,0.00000000,0.00000000,-0.00000000,-0.00000000,0.00000000,-0.00000000,0.08436915,0.19743387,-0.05301657,0.01095045,-2.37636089,0.11303480,-0.23298764,0.07315488,0.00000000,0.00000000,-0.00000000,-0.00000000,-1.07279098,-0.10916895,0.67543972,-0.02686214,0.00000000,0.00000000,0.00000000,0.00000000,0.00000000,0.00000000,-0.00000000,0.00000000,-0.00000000,-0.00000000,-0.00000000,0.00000000,0.00000000,-0.00000000,-0.00000000,-0.00000000,0.21284139,-0.01427872,0.07623646,-0.00864930,0.08140270,0.00115350,-0.47781146,0.00110860,0.00000000,-0.00000000,0.00000000,-0.00000000,-0.53402114,-1.17335117,0.46425319,-0.05742816,0.09116688,0.18177335,-0.04931074,0.01160500,-0.00000000,0.00000000,-0.00000000,-0.00000000,-0.00000000,-0.00000000,0.00000000,-0.00000000,-0.00000000,0.00000000,0.00000000,-0.00000000,0.00000000,0.00000000,-0.00000000,-0.00000000,-0.00000000,0.00000000,0.00000000,0.00000000,0.10118093,-0.01635760,-0.05786888,-0.00054154,0.07281516,0.18413913,-0.16065198,0.01306898,0.00573694,0.00023616,0.01073987,-0.00000265,-0.03571586,-0.02468967,-0.03019826,0.00307748,0.02091862,0.00561539,-0.02252774,-0.00573264,0.05835710,0.13475895,-0.03798279,0.00747719,0.00000000,0.00000000,-0.00000000,-0.00000000,-0.00000000,-0.00000000,-0.00000000,-0.00000000,-0.25794873,-0.00212836,-0.43964058,0.01106476,-0.00000000,0.00000000,0.00000000,0.00000000,-0.00000000,0.00000000,0.00000000,0.00000000,0.04877766,0.10676385,-0.03195515,0.00505591,0.00000000,-0.00000000,-0.00000000,-0.00000000,-0.00000000,0.00000000,0.00000000,0.00000000,0.53268063,0.12234335,-0.15557662,-0.00178378,0.00000000,0.00000000,-0.00000000,0.00000000,0.00000000,0.00000000,-0.00000000,-0.00000000,-0.00000000,0.00000000,-0.00000000,0.00000000,-0.00000000,0.00000000,0.00000000,-0.00000000,0.00000000,0.00000000,-0.00000000,-0.00000000,-0.00000000,-0.00000000,0.00000000,0.00000000,0.00000000,0.00000000,-0.00000000,-0.00000000,-0.00000000,0.00000000,-0.00000000,-0.00000000,-0.00000000,-0.00000000,-0.00000000,-0.00000000,-0.00000000,-0.00000000,0.00000000,-0.00000000,0.28996640,0.68470711,-0.17724049,0.03828986,0.00000000,0.00000000,-0.00000000,-0.00000000,0.00000000,0.00000000,-0.00000000,0.00000000,0.00000000,0.00000000,-0.00000000,-0.00000000,-0.00000000,-0.00000000,0.00000000,-0.00000000,0.00000000,0.00000000,-0.00000000,-0.00000000,0.00000000,0.00000000,-0.00000000,-0.00000000,0.00000000,0.00000000,-0.00000000,-0.00000000,-0.01960967,0.01681444,-0.00946333,-0.00556232,0.00000000,-0.00000000,0.00000000,-0.00000000,0.11259144,0.00843627,0.09159967,0.00027369,0.48679024,-0.04101761,0.06010818,-0.01385781,-0.00000000,0.00000000,-0.00000000,-0.00000000,0.00000000,-0.00000000,0.00000000,0.00000000,0.00919428,-0.00067492,0.00822574,-0.00619715,-0.00000000,-0.00000000,0.00000000,0.00000000,-0.00000000,-0.00000000,-0.00000000,0.00000000,-0.41830671,0.01448145,0.19006461,0.00144732,0.00000000,-0.00000000,0.00000000,0.00000000,0.00000000,0.00000000,-0.00000000,0.00000000,-0.20061457,0.11782070,-0.39260235,0.00837506,-0.00081139,-0.00167134,0.00127046,0.00090980,-0.00000000,0.00000000,-0.00000000,0.00000000,0.31334823,-0.02654574,0.03845155,-0.00922213,0.00000000,0.00000000,-0.00000000,-0.00000000,0.00000000,0.00000000,-0.00000000,-0.00000000,0.00000000,-0.00000000,-0.00000000,0.00000000,0.00000000,-0.00000000,0.00000000,-0.00000000,-0.00000000,-0.00000000,-0.00000000,0.00000000,0.00000000,-0.00000000,-0.00000000,-0.00000000,-0.10325707,-0.09246787,-0.14524737,-0.00468712,0.00000000,0.00000000,-0.00000000,-0.00000000,-0.00000000,-0.00000000,0.00000000,-0.00000000,0.29855937,0.41482726,-1.00348270,0.00226939,0.00000000,0.00000000,-0.00000000,-0.00000000,-0.00410942,0.01270103,-0.02590039,0.00048023,-0.01759848,-0.06270151,0.09193486,-0.00081094,-0.00000000,0.00000000,0.00000000,0.00000000,-0.00000000,0.00000000,0.00000000,-0.00000000,0.11308412,0.25753310,-0.08286798,0.01610450,0.05150704,0.12576060,-0.04227893,0.00510447,-0.00000000,-0.00000000,0.00000000,0.00000000],"adam_v":[0.00000000,0.00000000,0.00000000,0.00000000,0.31556076,0.01950584,0.29434711,0.00216894,0.34697741,0.10970601,3.56895328,0.00073822,0.00036290,0.00012864,0.00089773,0.00080207,0.00016133,0.00009421,0.00039362,0.00049256,0.00000000,0.00000000,0.00000000,0.00000000,0.00000000,0.00000000,0.00000000,0.00000000,0.00000000,0.00000000,0.00000000,0.00000000,0.00000000,0.00000000,0.00000000,0.00000000,0.00000000,0.00000000,0.00000000,0.00000000,0.01338542,0.05637666,0.19776990,0.00103563,0.00000000,0.00000000,0.00000000,0.00000000,0.00000000,0.00000000,0.00000000,0.00000000,0.00004995,0.00000296,0.00000093,0.00001607,0.01389386,0.00512268,0.01851434,0.00041929,0.79017031,0.16995335,6.91715193,0.00157407,0.00092582,0.00027644,0.00164429,0.00237984,0.56313378,0.01122456,0.54862785,0.00287267,0.12119865,0.03589298,0.15051000,0.00343159,0.90955478,0.14527488,7.86617565,0.00168740,0.16262445,0.02207741,0.15131050,0.01339010,0.00051081,0.00023601,0.00103378,0.00076515,0.00000000,0.00000000,0.00000000,0.00000000,0.00000000,0.00000000,0.00000000,0.00000000,0.00000000,0.00000000,0.00000000,0.00000000,0.00889884,0.00656457,0.18674774,0.00002390,0.00650079,0.00208669,0.01199267,0.00062209,0.08846906,0.04245258,1.27637446,0.00196508,0.74611318,0.02213530,0.72135317,0.00543567,0.00488572,0.00200761,0.01521032,0.01174681,0.00498671,0.00196509,0.01581987,0.01231031,0.00000000,0.00000000,0.00000000,0.00000000,0.60543376,0.08716386,5.89250135,0.00172197,0.00000000,0.00000000,0.00000000,0.00000000,0.00000000,0.00000000,0.00000000,0.00000000,0.00039418,0.00005482,0.00006530,0.00008797,27.19491005,5.87524366,241.25628662,0.04411869,0.01253767,0.00389395,0.05466826,0.02277308,0.00080689,0.00021809,0.00011749,0.00011801,0.02345738,0.02043070,0.28812471,0.00014464,0.00000000,0.00000000,0.00000000,0.00000000,0.00000013,0.00000028,0.00000178,0.00000022,0.00000000,0.00000000,0.00000000,0.00000000,2.23601413,0.26738006,10.86138248,0.00226535,58.11810303,12.79470444,524.94573975,0.07728673,0.00000000,0.00000000,0.00000000,0.00000000,18.19351959,0.27106214,18.69269753,0.02425840,0.00370705,0.00162952,0.01052456,0.00798201,0.00000000,0.00000000,0.00000000,0.00000000,0.00000000,0.00000000,0.00000000,0.00000000,0.00002701,0.00001610,0.00017715,0.00005072,0.64724618,0.14004034,5.59429598,0.00125631,0.16396923,0.01488796,0.91191489,0.00048576,0.00000000,0.00000000,0.00000000,0.00000000,84.34263611,8.17636299,405.99819946,0.05327756,2.08359075,0.25063202,9.94289303,0.00181442,0.00235247,0.00071397,0.01040933,0.00423488,0.00000000,0.00000000,0.00000000,0.00000000,0.00000000,0.00000000,0.00000000,0.00000000,0.00000000,0.00000000,0.00000000,0.00000000,0.00000000,0.00000000,0.00000000,0.00000000,0.34643945,0.01593365,0.78234065,0.00031772,2.53991938,0.22345802,11.68092346,0.00256695,0.00067360,0.00015041,0.00209844,0.00002718,0.10391177,0.01457462,0.04128994,0.01506832,0.26948678,0.05183139,0.32177699,0.00392047,1.05688202,0.12632079,5.13707352,0.00105706,0.00000000,0.00000000,0.00000000,0.00000000,0.00536674,0.00197416,0.02137382,0.01034014,0.85267317,0.16132720,5.38332748,0.00173675,0.00000000,0.00000000,0.00000000,0.00000000,0.00000000,0.00000000,0.00000000,0.00000000,0.67261791,0.08120431,3.22492051,0.00059182,0.00000000,0.00000000,0.00000000,0.00000000,0.00103078,0.00004647,0.00121999,0.00000058,2.80642962,0.37534502,11.30704784,0.00269373,0.00003195,0.00001611,0.00007153,0.00009152,0.00000000,0.00000000,0.00000000,0.00000000,0.00000000,0.00000000,0.00000000,0.00000000,0.00000000,0.00000000,0.00000000,0.00000000,0.00000000,0.00000000,0.00000000,0.00000000,0.00000000,0.00000000,0.00000000,0.00000000,0.00000000,0.00000000,0.00000000,0.00000000,0.01415225,0.00408705,0.06178595,0.02596868,0.00048776,0.00015136,0.00079435,0.00126002,0.00000000,0.00000000,0.00000000,0.00000000,27.04349899,3.23093939,131.42103577,0.02505789,0.00000000,0.00000000,0.00000000,0.00000000,0.00000066,0.00000033,0.00000062,0.00000000,0.00000000,0.00000000,0.00000000,0.00000000,0.00376964,0.00088148,0.00956020,0.00038023,0.00000000,0.00000000,0.00000000,0.00000000,0.00000000,0.00000000,0.00000000,0.00000000,0.00000000,0.00000000,0.00000000,0.00000000,0.04570017,0.03421054,0.02703593,0.01627929,0.00000000,0.00000000,0.00000000,0.00000000,0.25830039,0.02425469,1.27919102,0.00025428,2.62049747,0.56387097,22.72761154,0.00636922,0.00000000,0.00000000,0.00000000,0.00000000,0.00000000,0.00000000,0.00000000,0.00000000,0.07687990,0.01187829,0.03233898,0.01284748,0.00000000,0.00000000,0.00000000,0.00000000,0.00000000,0.00000000,0.00000000,0.00000000,0.96730149,0.08562034,5.07654333,0.00097297,0.00013737,0.00011609,0.00114109,0.00020559,0.00105808,0.00036269,0.00278381,0.00238384,1.02065265,0.13480479,7.30647039,0.00238933,0.00431450,0.00070394,0.00114567,0.00077609,0.00000000,0.00000000,0.00000000,0.00000000,1.08728051,0.23355444,9.41459560,0.00258718,0.00000000,0.00000000,0.00000000,0.00000000,0.00000000,0.00000000,0.00000000,0.00000000,0.00000000,0.00000000,0.00000000,0.00000000,0.00000000,0.00000000,0.00000000,0.00000000,0.00000000,0.00000000,0.00000000,0.00000000,0.00000000,0.00000000,0.00000000,0.00000000,0.73119742,0.07091313,2.89618206,0.00046750,0.00000629,0.00000596,0.00001204,0.00000011,0.00000000,0.00000000,0.00000000,0.00000000,3.95154643,0.78824276,22.76490784,0.00450143,0.00000000,0.00000000,0.00000000,0.00000000,0.01625133,0.03156965,0.06156681,0.00177804,0.28383210,0.42423394,1.64585268,0.00225565,0.00000000,0.00000000,0.00000000,0.00000000,0.00000000,0.00000000,0.00000000,0.00000000,4.25827169,0.51532513,20.51934242,0.00438074,0.89583749,0.10813562,4.26759958,0.00088440,0.00000000,0.00000000,0.00000000,0.00000000]},"bias":{"array":{"data":[-2.05633163,-0.73791659,0.35333788,-1.76935720,-1.65623879,-1.59491181,-0.69107074,-1.44390166,-0.79691213,-1.40542531,-0.47313452,-1.22683060,-1.31641281,-1.44947267,-2.01827574,-0.38015598,-1.16030908,-1.43086851,-1.75654078,-0.47354126,-1.24777496,-0.81512201,-1.35647106,-1.37292600,-0.52539372,-0.53608948,-0.62271160,-0.14106086,-1.28578329,-1.22885966,-1.26828420,-1.72452915,-1.14113748,-1.73200166,-1.29529798,-1.36767399,-0.98903984,-2.17030692,-0.93823570,-1.10416996,-1.39835918,-1.27554536,-1.02682221,-0.11087716,-1.55109823,-0.71277779,-2.50007176,-1.45500815,-1.12995791,-1.40251696,-1.12258160,-0.59463251,-0.30464661,-0.93372500,-1.41732287,0.18629116,-0.94801831,-0.35740420,-0.17864442,-1.04969513,-0.90840387,-0.99609685,-0.02221251,-0.95857382,-1.25420368,-2.32594395,-0.79699218,-1.41741657,-1.52774596,-0.49164945,-0.69427806,-2.15365267,0.18911782,-0.10095846,-1.16661680,-1.20645750,-2.14421725,-0.91203213,-1.17947030,-1.37788248,-1.06356955,-1.40780413,-1.28918648,-1.85535502,-1.11370623,-0.90830529,-1.35239816,-1.24811053,-1.99775362,-1.72654760,-1.05285001,-2.04923701,-1.50340044,-1.30363667,-1.34001327,-0.75361896,0.10275112,0.96035886,-0.82300913,-1.77071393,-1.68034363,-0.81779712,-1.38355589,0.12849529,-1.75614285,-1.50194490,-0.21826328,-0.84895670,-0.67746538,-0.01082092,-0.91269869,-0.90439194,-1.77668047,-0.79039139,-1.72516227,-0.64131802,-1.39374828,-1.16063523,-0.85327071,0.04311897,-1.90136647,-1.54221344,-0.50744647,-0.14287804,-1.09136760,0.00691908,0.10300816,-1.76257753],"gradient":[0.00000000,0.00000000,-0.21714671,0.00000000,0.00000000,0.00000000,0.00000000,0.00000000,0.00000000,0.00000000,0.00000000,0.00000000,0.00000000,0.00000000,0.00000000,-0.14541847,0.00000000,0.00000000,0.00000000,-0.15711883,0.00000000,0.00000000,0.00000000,0.00000000,0.00000000,0.04523322,0.05503040,0.00000000,0.00000000,0.00000000,0.00000000,0.00000000,-0.15611437,0.00000000,0.00000000,0.00000000,-0.85893559,0.00000000,0.00000000,-0.06657026,0.00000000,0.00000000,0.00000000,-0.31622580,1.28429651,0.00000000,0.00000000,0.00000000,0.00000000,0.00000000,0.00000000,-0.08655877,-0.04182792,0.00000000,1.48743606,-0.30223387,0.00000000,0.00000000,0.00000000,0.00000000,0.00000000,0.00000000,-0.18279529,0.00000000,0.00000000,0.00000000,-0.21531621,0.00000000,0.00000000,0.11902937,0.00000000,0.00000000,-0.17206988,0.00000000,0.00000000,-0.36392987,0.00000000,0.00000000,0.00000000,0.00000000,0.00000000,0.00000000,0.00000000,0.00000000,0.00000000,0.00000000,-1.09777737,0.00000000,0.00000000,0.00000000,0.00000000,0.00000000,0.00000000,0.00000000,0.00000000,0.00000000,-0.06726740,-0.26419273,0.00000000,0.00000000,0.00000000,0.00000000,0.00000000,0.11134605,0.00000000,0.00000000,0.09042739,0.00000000,0.00000000,-0.16953810,0.00000000,0.00000000,0.00000000,0.00000000,0.00000000,0.00000000,0.10416209,0.00000000,0.00000000,-0.50122148,0.00000000,0.00000000,0.00000000,0.00000000,0.00000000,-0.43263546,-0.19956326,0.00000000]},"adam_m":[0.00000000,0.32274085,-0.27884457,0.00000000,0.00000000,0.00000000,0.00000000,0.00000000,0.00000000,0.00000000,0.02473129,0.00000000,0.00000000,0.00000000,0.01156026,0.02715284,-0.00000000,-0.32588616,0.02991393,0.00291526,-0.01222558,0.00000000,0.00000000,0.00000000,0.00000000,0.04570259,0.06897765,-0.26655269,-0.33030584,0.00000000,-0.00000000,0.00000000,-0.13491181,0.00000000,0.00000000,0.00000000,0.14422894,0.00000000,0.00209720,0.06148487,0.00000000,0.00000000,0.00000000,0.05119288,-0.14030051,0.00000000,-0.72749126,0.00000000,0.00000000,0.00000000,0.00000000,0.06516862,-0.16415387,0.00000000,-0.48692966,0.04412130,-0.00000000,0.00000000,0.00000000,0.00000000,0.00000000,0.06359952,0.09809479,-0.01075838,-0.04207208,0.03432022,0.03675383,0.00000000,-0.00000000,-0.63286012,0.00000000,0.00000000,0.02196585,0.00000000,0.00000000,0.17434442,0.00000000,0.00000000,0.00000000,0.00000000,0.00000000,0.00000000,0.00000000,-0.00000000,-0.00000000,0.00000000,0.17010641,0.00000000,-0.00000000,0.00000000,0.00000000,0.00000000,0.00000000,0.00000000,-0.02791863,0.00000000,0.15359893,0.00704265,0.00000000,0.00000000,0.01100436,0.00000000,0.00000000,-0.42052537,0.00000000,0.00000000,-0.17640853,-0.00113928,0.00000000,0.01250136,0.00000000,0.00000000,0.00000000,0.00000000,0.00000000,0.00000000,0.13849664,0.00000000,0.00000000,-0.51809388,0.00000000,-0.02453224,0.13132219,0.00000000,0.00000000,0.04000175,0.02330679,0.00000000],"adam_v":[0.00000000,0.37294167,3.49114251,0.00445698,0.00263839,0.00000000,0.00000000,0.00000000,0.00000000,0.00000000,0.21897125,0.00000000,0.00000000,0.00010624,0.02513128,7.13226891,0.01261098,0.63196748,0.20126869,8.08498573,0.30766356,0.00460022,0.00000000,0.00000000,0.00000000,0.18841572,0.02481982,1.40323114,0.84819096,0.06713947,0.07019544,0.00000000,6.00760460,0.00000000,0.00000000,0.00084235,246.82225037,0.14453335,0.00156940,0.29170853,0.00000000,0.00000190,0.00000000,11.05904007,535.18115234,0.00000000,19.98343086,0.04581177,0.00000000,0.00000000,0.00032562,5.74374247,0.91328967,0.00000000,412.87069702,10.30790424,0.02689486,0.00000000,0.00000000,0.00000000,0.00000000,0.81412131,11.98498726,0.00227244,0.20792519,0.38038504,5.22827959,0.00000000,0.06405867,5.55578756,0.00000000,0.00000000,3.33282995,0.00000000,0.00130766,11.62149429,0.00047861,0.00000000,0.00000000,0.00000000,0.00000000,0.00000000,0.00000000,0.16411549,0.00662050,0.00000000,133.87715149,0.00000000,0.00000070,0.00000000,0.01164168,0.00000000,0.00000000,0.00000000,0.15839157,0.00000000,1.25544322,23.64275742,0.00000000,0.00000000,0.16555688,0.00000000,0.00000000,4.97190285,0.00152669,0.01326585,7.50753880,0.00940394,0.00000000,9.79584885,0.00000000,0.00000000,0.00000000,0.00000000,0.00000000,0.00000000,2.96923542,0.00001380,0.00000000,22.57077217,0.00000000,0.09143183,1.81109393,0.00000000,0.00000000,21.09608269,4.42088938,0.00000000]}},{"weight":{"array":{"data":[-1.06716454,1.06432450,0.30631605,-1.06350660,-0.85001141,-2.70075130,0.83122706,-2.36979175,1.20207191,-5.65073252,-0.57642156,2.15682220,-4.67464542,-0.86174881,2.03186011,0.43942142,1.66360867,-1.20288241,5.31728125,0.47477728,-2.20506120,-0.87053734,-1.97338784,-2.13931727,-0.03311456,-0.12498114,-0.48322678,-0.76859951,-1.41701591,-3.30637264,3.38960314,-0.89292872,0.61712664,-1.51963067,-0.15174788,-1.16133809,2.59550738,-7.82101583,0.25780392,0.49898118,-1.53880703,-2.62418890,-2.19175339,0.56244618,-3.88085103,-1.58149636,-7.18989897,-3.39282870,-2.16108823,-4.15349913,0.73712838,0.39879543,0.36729461,-1.07789278,-3.46866727,0.53755987,3.48114634,-0.26038381,-0.02867531,0.80745935,-0.48002395,0.23210678,0.58938944,-0.38018391,2.32023025,5.92183399,0.38296619,-7.81128645,4.87568188,-0.54839468,-0.74776411,-6.28146791,0.30604726,0.03070894,-3.15165901,0.80443895,-0.38942876,-6.19707251,-7.76940346,-0.76933646,-1.46004713,-1.77778304,-2.58874702,8.34717560,1.24017572,-1.09336245,1.95253122,1.43054843,-3.10678792,-3.57683325,0.58416373,-4.37732840,-1.92734146,-2.09943080,-3.62087154,-0.59337145,0.16117235,0.79833013,-1.33393168,0.17946102,-2.52060366,-0.61367911,-3.67693496,-0.33646238,-2.03562737,1.76697552,-0.65014219,0.52930224,0.29985285,0.51230544,-1.19901490,0.17257750,-1.21017385,-0.87238729,0.80756634,-0.41431427,-0.32653740,4.39842272,-1.33532631,0.78292018,1.87487805,0.89084285,-0.89416033,-0.01586426,-3.52612686,0.76949495,0.35494763,-6.13510704],"gradient":[0.00000000,0.00000000,-0.39113373,0.00000000,0.00000000,0.00000000,0.00000000,0.00000000,0.00000000,0.00000000,0.00000000,0.00000000,0.00000000,0.00000000,0.00000000,-0.25109404,0.00000000,0.00000000,0.00000000,-0.17134781,0.00000000,0.00000000,0.00000000,0.00000000,0.00000000,-0.29717094,-0.00230209,0.00000000,0.00000000,0.00000000,0.00000000,0.00000000,-0.03224483,0.00000000,0.00000000,0.00000000,-0.15038282,0.00000000,0.00000000,-0.00091494,0.00000000,0.00000000,0.00000000,-0.60191977,-0.04212181,0.00000000,0.00000000,0.00000000,0.00000000,0.00000000,0.00000000,-0.10597902,-0.02941762,0.00000000,-0.03659853,-0.88743109,0.00000000,0.00000000,0.00000000,0.00000000,0.00000000,0.00000000,-0.06799680,0.00000000,0.00000000,0.00000000,-0.14371516,0.00000000,0.00000000,-0.06525755,0.00000000,0.00000000,-0.58382863,0.00000000,0.00000000,-0.04020154,0.00000000,0.00000000,0.00000000,0.00000000,0.00000000,0.00000000,0.00000000,0.00000000,0.00000000,0.00000000,-0.18640123,0.00000000,0.00000000,0.00000000,0.00000000,0.00000000,0.00000000,0.00000000,0.00000000,0.00000000,-0.17527507,-0.69649649,0.00000000,0.00000000,0.00000000,0.00000000,0.00000000,-0.11988372,0.00000000,0.00000000,-0.03880137,0.00000000,0.00000000,-0.31966254,0.00000000,0.00000000,0.00000000,0.00000000,0.00000000,0.00000000,-0.18203117,0.00000000,0.00000000,-0.18379220,0.00000000,0.00000000,0.00000000,0.00000000,0.00000000,-0.34551102,-0.49406755,0.00000000]},"adam_m":[-0.00000000,0.01877115,-0.16387856,-0.00000000,-0.00000000,-0.00000000,0.00000000,-0.00000000,0.00000000,-0.00000000,-0.01111906,0.00000000,-0.00000000,-0.00000000,0.00061975,0.49007207,-0.00000000,0.02622046,0.00026395,0.29915434,-0.00934557,-0.00000000,-0.00000000,-0.00000000,-0.00000000,0.15263265,-0.03074615,-0.03427824,0.03831222,-0.00000000,-0.00000000,-0.00000000,-0.09105605,-0.00000000,-0.00000000,-0.00000000,-0.18674457,-0.00000000,0.00007465,0.02631889,-0.00000000,-0.00000000,-0.00000000,-0.24298565,-0.08276398,-0.00000000,0.00411809,-0.00000000,-0.00000000,-0.00000000,0.00000000,0.32221231,-0.04506872,-0.00000000,0.04448374,0.51677799,-0.00000000,-0.00000000,0.00000000,0.00000000,-0.00000000,0.29291087,0.24148761,0.00205513,-0.00986059,0.00070526,0.03676781,-0.00000000,-0.00000000,0.35751566,-0.00000000,-0.00000000,0.23820925,-0.00000000,-0.00000000,-0.03409887,-0.00000000,-0.00000000,-0.00000000,-0.00000000,-0.00000000,-0.00000000,-0.00000000,-0.00000000,-0.00000000,-0.00000000,0.12116271,0.00000000,0.00000000,-0.00000000,0.00000000,-0.00000000,-0.00000000,-0.00000000,0.00003580,-0.00000000,1.02596211,0.03210092,-0.00000000,0.00000000,-0.00264487,-0.00000000,-0.00000000,0.38635308,-0.00000000,-0.00000000,0.09643233,-0.00699920,0.00000000,0.67918253,-0.00000000,0.00000000,-0.00000000,-0.00000000,0.00000000,-0.00000000,0.47524005,0.00000000,-0.00000000,-0.34952533,0.00000000,0.00118736,-0.00813573,0.00000000,-0.00000000,0.27833664,-0.04615426,-0.00000000],"adam_v":[0.00000000,0.00256809,10.67082977,0.00014825,0.00115104,0.00000000,0.00000000,0.00000000,0.00000000,0.00000000,0.19509198,0.00000000,0.00000000,0.00000055,0.00030161,26.33527374,0.00008002,0.00769089,0.00014841,10.49282837,0.03176336,0.00174797,0.00000000,0.00000000,0.00000000,6.02333260,0.05545176,0.13479427,0.02536567,0.00877988,0.00600991,0.00000000,0.23223217,0.00000000,0.00000000,0.00001151,7.46774149,0.00074285,0.01914807,0.00664289,0.00000000,0.00000000,0.00000000,25.92998505,0.63116765,0.00000000,0.00175154,0.00074949,0.00000000,0.00000000,0.00000889,7.76083565,0.08954015,0.00000000,0.40520564,112.59951019,0.00005358,0.00000000,0.00000000,0.00000000,0.00000000,0.51345861,4.00248480,0.00010284,0.02632783,0.00059840,3.34545422,0.00000000,0.00086358,4.79441595,0.00000000,0.00000000,40.96518326,0.00000000,0.00000058,0.29058447,0.00023703,0.00000000,0.00000000,0.00000000,0.00000000,0.00000000,0.00000000,0.00052675,0.00005152,0.00000000,6.52941799,0.00000000,0.00000000,0.00000000,0.00300007,0.00000000,0.00000000,0.00000000,0.00383057,0.00000000,16.60886192,162.24636841,0.00000000,0.00000000,0.00125143,0.00000000,0.00000000,6.44513464,0.00000342,0.00034143,1.15575504,0.01713346,0.00000000,43.69875336,0.00000000,0.00000000,0.00000000,0.00000000,0.00000000,0.00000000,24.31441307,0.00000000,0.00000000,2.01191902,0.00000000,0.01490051,0.15345757,0.00000000,0.00000000,26.72338676,24.79085732,0.00000000]},"bias":{"array":{"data":[1.37946856],"gradient":[-0.89316463]},"adam_m":[0.10164058],"adam_v":[70.14029694]}}]}},"opt":{"iteration":2130704,"period_counter":8,"learning_rate":0.00097514,"beta1":0.89999998,"beta2":0.99900001,"epsilon":0.00000001,"weight_decay":0.00000000,"bias_correction1":1.00000000,"bias_correction2":1.00000000},"step":505,"best_score":90.30629730}